digraph Tree {
node [shape=box, style="filled, rounded", color="black", fontname=helvetica] ;
edge [fontname=helvetica] ;
0 [label="X[0] <= 5.075\nmse = 1.6\nsamples = 20640\nvalue = 1.571", fillcolor="#f7d7c1"] ;
1 [label="X[0] <= 3.07\nmse = 1.015\nsamples = 16385\nvalue = 1.224", fillcolor="#f9e0cf"] ;
0 -> 1 [labeldistance=2.5, labelangle=45, headlabel="True"] ;
2 [label="X[2] <= 4.206\nmse = 0.728\nsamples = 7831\nvalue = 0.822", fillcolor="#fbeade"] ;
1 -> 2 ;
3 [label="X[5] <= 2.507\nmse = 0.845\nsamples = 2936\nvalue = 1.149", fillcolor="#f9e2d2"] ;
2 -> 3 ;
4 [label="X[6] <= 37.915\nmse = 1.258\nsamples = 914\nvalue = 1.569", fillcolor="#f7d7c1"] ;
3 -> 4 ;
5 [label="X[7] <= -118.265\nmse = 1.255\nsamples = 784\nvalue = 1.714", fillcolor="#f6d4bb"] ;
4 -> 5 ;
6 [label="X[5] <= 1.618\nmse = 1.485\nsamples = 468\nvalue = 2.043", fillcolor="#f4ccae"] ;
5 -> 6 ;
7 [label="X[6] <= 34.325\nmse = 2.35\nsamples = 57\nvalue = 2.965", fillcolor="#f0b48a"] ;
6 -> 7 ;
8 [label="X[2] <= 2.149\nmse = 1.504\nsamples = 26\nvalue = 3.731", fillcolor="#eca16b"] ;
7 -> 8 ;
9 [label="mse = 0.0\nsamples = 1\nvalue = 1.0", fillcolor="#fae6d7"] ;
8 -> 9 ;
10 [label="X[4] <= 1477.5\nmse = 1.254\nsamples = 25\nvalue = 3.84", fillcolor="#eb9e67"] ;
8 -> 10 ;
11 [label="X[6] <= 33.975\nmse = 0.851\nsamples = 17\nvalue = 4.176", fillcolor="#e9965a"] ;
10 -> 11 ;
12 [label="X[1] <= 31.0\nmse = 0.25\nsamples = 2\nvalue = 2.5", fillcolor="#f2c09c"] ;
11 -> 12 ;
13 [label="mse = 0.0\nsamples = 1\nvalue = 2.0", fillcolor="#f5cdb0"] ;
12 -> 13 ;
14 [label="mse = 0.0\nsamples = 1\nvalue = 3.0", fillcolor="#efb388"] ;
12 -> 14 ;
15 [label="X[0] <= 1.899\nmse = 0.507\nsamples = 15\nvalue = 4.4", fillcolor="#e89051"] ;
11 -> 15 ;
16 [label="X[5] <= 1.42\nmse = 0.222\nsamples = 3\nvalue = 3.667", fillcolor="#eca36e"] ;
15 -> 16 ;
17 [label="mse = 0.0\nsamples = 2\nvalue = 4.0", fillcolor="#ea9a61"] ;
16 -> 17 ;
18 [label="mse = 0.0\nsamples = 1\nvalue = 3.0", fillcolor="#efb388"] ;
16 -> 18 ;
19 [label="X[0] <= 2.984\nmse = 0.41\nsamples = 12\nvalue = 4.583", fillcolor="#e78c4a"] ;
15 -> 19 ;
20 [label="X[6] <= 33.985\nmse = 0.109\nsamples = 8\nvalue = 4.875", fillcolor="#e6843e"] ;
19 -> 20 ;
21 [label="mse = 0.0\nsamples = 1\nvalue = 4.0", fillcolor="#ea9a61"] ;
20 -> 21 ;
22 [label="mse = 0.0\nsamples = 7\nvalue = 5.0", fillcolor="#e58139"] ;
20 -> 22 ;
23 [label="X[7] <= -118.495\nmse = 0.5\nsamples = 4\nvalue = 4.0", fillcolor="#ea9a61"] ;
19 -> 23 ;
24 [label="mse = 0.0\nsamples = 1\nvalue = 3.0", fillcolor="#efb388"] ;
23 -> 24 ;
25 [label="X[5] <= 1.521\nmse = 0.222\nsamples = 3\nvalue = 4.333", fillcolor="#e89253"] ;
23 -> 25 ;
26 [label="mse = 0.0\nsamples = 1\nvalue = 5.0", fillcolor="#e58139"] ;
25 -> 26 ;
27 [label="mse = 0.0\nsamples = 2\nvalue = 4.0", fillcolor="#ea9a61"] ;
25 -> 27 ;
28 [label="X[0] <= 2.525\nmse = 1.359\nsamples = 8\nvalue = 3.125", fillcolor="#efb083"] ;
10 -> 28 ;
29 [label="mse = 0.0\nsamples = 2\nvalue = 5.0", fillcolor="#e58139"] ;
28 -> 29 ;
30 [label="X[2] <= 3.433\nmse = 0.25\nsamples = 6\nvalue = 2.5", fillcolor="#f2c09c"] ;
28 -> 30 ;
31 [label="mse = 0.0\nsamples = 3\nvalue = 2.0", fillcolor="#f5cdb0"] ;
30 -> 31 ;
32 [label="mse = 0.0\nsamples = 3\nvalue = 3.0", fillcolor="#efb388"] ;
30 -> 32 ;
33 [label="X[7] <= -122.335\nmse = 2.154\nsamples = 31\nvalue = 2.323", fillcolor="#f3c4a3"] ;
7 -> 33 ;
34 [label="X[2] <= 2.793\nmse = 2.81\nsamples = 10\nvalue = 3.3", fillcolor="#eeac7c"] ;
33 -> 34 ;
35 [label="X[6] <= 37.785\nmse = 0.25\nsamples = 4\nvalue = 4.5", fillcolor="#e88e4d"] ;
34 -> 35 ;
36 [label="mse = 0.0\nsamples = 2\nvalue = 5.0", fillcolor="#e58139"] ;
35 -> 36 ;
37 [label="mse = 0.0\nsamples = 2\nvalue = 4.0", fillcolor="#ea9a61"] ;
35 -> 37 ;
38 [label="X[4] <= 1360.0\nmse = 2.917\nsamples = 6\nvalue = 2.5", fillcolor="#f2c09c"] ;
34 -> 38 ;
39 [label="X[6] <= 37.785\nmse = 1.25\nsamples = 4\nvalue = 1.5", fillcolor="#f7d9c4"] ;
38 -> 39 ;
40 [label="X[0] <= 1.999\nmse = 0.25\nsamples = 2\nvalue = 2.5", fillcolor="#f2c09c"] ;
39 -> 40 ;
41 [label="mse = 0.0\nsamples = 1\nvalue = 2.0", fillcolor="#f5cdb0"] ;
40 -> 41 ;
42 [label="mse = 0.0\nsamples = 1\nvalue = 3.0", fillcolor="#efb388"] ;
40 -> 42 ;
43 [label="X[0] <= 2.788\nmse = 0.25\nsamples = 2\nvalue = 0.5", fillcolor="#fcf2eb"] ;
39 -> 43 ;
44 [label="mse = 0.0\nsamples = 1\nvalue = 0.0", fillcolor="#ffffff"] ;
43 -> 44 ;
45 [label="mse = 0.0\nsamples = 1\nvalue = 1.0", fillcolor="#fae6d7"] ;
43 -> 45 ;
46 [label="X[2] <= 3.267\nmse = 0.25\nsamples = 2\nvalue = 4.5", fillcolor="#e88e4d"] ;
38 -> 46 ;
47 [label="mse = 0.0\nsamples = 1\nvalue = 4.0", fillcolor="#ea9a61"] ;
46 -> 47 ;
48 [label="mse = 0.0\nsamples = 1\nvalue = 5.0", fillcolor="#e58139"] ;
46 -> 48 ;
49 [label="X[0] <= 1.121\nmse = 1.17\nsamples = 21\nvalue = 1.857", fillcolor="#f5d0b5"] ;
33 -> 49 ;
50 [label="X[2] <= 2.199\nmse = 0.333\nsamples = 6\nvalue = 1.0", fillcolor="#fae6d7"] ;
49 -> 50 ;
51 [label="mse = 0.0\nsamples = 1\nvalue = 2.0", fillcolor="#f5cdb0"] ;
50 -> 51 ;
52 [label="X[4] <= 117.0\nmse = 0.16\nsamples = 5\nvalue = 0.8", fillcolor="#fbebdf"] ;
50 -> 52 ;
53 [label="mse = 0.0\nsamples = 1\nvalue = 0.0", fillcolor="#ffffff"] ;
52 -> 53 ;
54 [label="mse = 0.0\nsamples = 4\nvalue = 1.0", fillcolor="#fae6d7"] ;
52 -> 54 ;
55 [label="X[1] <= 19.5\nmse = 1.093\nsamples = 15\nvalue = 2.2", fillcolor="#f4c8a8"] ;
49 -> 55 ;
56 [label="mse = 0.0\nsamples = 1\nvalue = 5.0", fillcolor="#e58139"] ;
55 -> 56 ;
57 [label="X[0] <= 2.501\nmse = 0.571\nsamples = 14\nvalue = 2.0", fillcolor="#f5cdb0"] ;
55 -> 57 ;
58 [label="X[7] <= -120.96\nmse = 0.444\nsamples = 9\nvalue = 1.667", fillcolor="#f6d5bd"] ;
57 -> 58 ;
59 [label="X[6] <= 37.815\nmse = 0.222\nsamples = 6\nvalue = 1.333", fillcolor="#f8ddca"] ;
58 -> 59 ;
60 [label="mse = 0.0\nsamples = 4\nvalue = 1.0", fillcolor="#fae6d7"] ;
59 -> 60 ;
61 [label="mse = 0.0\nsamples = 2\nvalue = 2.0", fillcolor="#f5cdb0"] ;
59 -> 61 ;
62 [label="X[5] <= 1.496\nmse = 0.222\nsamples = 3\nvalue = 2.333", fillcolor="#f3c4a3"] ;
58 -> 62 ;
63 [label="mse = 0.0\nsamples = 2\nvalue = 2.0", fillcolor="#f5cdb0"] ;
62 -> 63 ;
64 [label="mse = 0.0\nsamples = 1\nvalue = 3.0", fillcolor="#efb388"] ;
62 -> 64 ;
65 [label="X[1] <= 27.5\nmse = 0.24\nsamples = 5\nvalue = 2.6", fillcolor="#f1bd98"] ;
57 -> 65 ;
66 [label="mse = 0.0\nsamples = 2\nvalue = 2.0", fillcolor="#f5cdb0"] ;
65 -> 66 ;
67 [label="mse = 0.0\nsamples = 3\nvalue = 3.0", fillcolor="#efb388"] ;
65 -> 67 ;
68 [label="X[7] <= -122.405\nmse = 1.231\nsamples = 411\nvalue = 1.915", fillcolor="#f5cfb3"] ;
6 -> 68 ;
69 [label="X[2] <= 3.138\nmse = 1.361\nsamples = 47\nvalue = 2.851", fillcolor="#f0b78e"] ;
68 -> 69 ;
70 [label="X[6] <= 37.795\nmse = 1.396\nsamples = 15\nvalue = 2.067", fillcolor="#f4cbad"] ;
69 -> 70 ;
71 [label="X[0] <= 1.411\nmse = 0.521\nsamples = 13\nvalue = 1.692", fillcolor="#f6d4bc"] ;
70 -> 71 ;
72 [label="X[3] <= 1.053\nmse = 0.25\nsamples = 2\nvalue = 0.5", fillcolor="#fcf2eb"] ;
71 -> 72 ;
73 [label="mse = 0.0\nsamples = 1\nvalue = 1.0", fillcolor="#fae6d7"] ;
72 -> 73 ;
74 [label="mse = 0.0\nsamples = 1\nvalue = 0.0", fillcolor="#ffffff"] ;
72 -> 74 ;
75 [label="X[5] <= 2.471\nmse = 0.264\nsamples = 11\nvalue = 1.909", fillcolor="#f5cfb3"] ;
71 -> 75 ;
76 [label="X[4] <= 505.0\nmse = 0.16\nsamples = 10\nvalue = 1.8", fillcolor="#f6d2b8"] ;
75 -> 76 ;
77 [label="mse = 0.0\nsamples = 1\nvalue = 1.0", fillcolor="#fae6d7"] ;
76 -> 77 ;
78 [label="X[3] <= 1.029\nmse = 0.099\nsamples = 9\nvalue = 1.889", fillcolor="#f5cfb4"] ;
76 -> 78 ;
79 [label="X[3] <= 0.998\nmse = 0.25\nsamples = 2\nvalue = 1.5", fillcolor="#f7d9c4"] ;
78 -> 79 ;
80 [label="mse = 0.0\nsamples = 1\nvalue = 2.0", fillcolor="#f5cdb0"] ;
79 -> 80 ;
81 [label="mse = 0.0\nsamples = 1\nvalue = 1.0", fillcolor="#fae6d7"] ;
79 -> 81 ;
82 [label="mse = 0.0\nsamples = 7\nvalue = 2.0", fillcolor="#f5cdb0"] ;
78 -> 82 ;
83 [label="mse = 0.0\nsamples = 1\nvalue = 3.0", fillcolor="#efb388"] ;
75 -> 83 ;
84 [label="X[4] <= 2454.0\nmse = 0.25\nsamples = 2\nvalue = 4.5", fillcolor="#e88e4d"] ;
70 -> 84 ;
85 [label="mse = 0.0\nsamples = 1\nvalue = 4.0", fillcolor="#ea9a61"] ;
84 -> 85 ;
86 [label="mse = 0.0\nsamples = 1\nvalue = 5.0", fillcolor="#e58139"] ;
84 -> 86 ;
87 [label="X[5] <= 2.13\nmse = 0.921\nsamples = 32\nvalue = 3.219", fillcolor="#eeae80"] ;
69 -> 87 ;
88 [label="X[6] <= 37.785\nmse = 0.756\nsamples = 18\nvalue = 3.722", fillcolor="#eca16c"] ;
87 -> 88 ;
89 [label="X[0] <= 2.862\nmse = 0.544\nsamples = 13\nvalue = 3.385", fillcolor="#edaa79"] ;
88 -> 89 ;
90 [label="X[3] <= 1.082\nmse = 0.122\nsamples = 7\nvalue = 2.857", fillcolor="#f0b78e"] ;
89 -> 90 ;
91 [label="mse = 0.0\nsamples = 6\nvalue = 3.0", fillcolor="#efb388"] ;
90 -> 91 ;
92 [label="mse = 0.0\nsamples = 1\nvalue = 2.0", fillcolor="#f5cdb0"] ;
90 -> 92 ;
93 [label="X[2] <= 4.069\nmse = 0.333\nsamples = 6\nvalue = 4.0", fillcolor="#ea9a61"] ;
89 -> 93 ;
94 [label="X[0] <= 3.015\nmse = 0.16\nsamples = 5\nvalue = 4.2", fillcolor="#e99559"] ;
93 -> 94 ;
95 [label="mse = 0.0\nsamples = 4\nvalue = 4.0", fillcolor="#ea9a61"] ;
94 -> 95 ;
96 [label="mse = 0.0\nsamples = 1\nvalue = 5.0", fillcolor="#e58139"] ;
94 -> 96 ;
97 [label="mse = 0.0\nsamples = 1\nvalue = 3.0", fillcolor="#efb388"] ;
93 -> 97 ;
98 [label="X[7] <= -122.415\nmse = 0.24\nsamples = 5\nvalue = 4.6", fillcolor="#e78b49"] ;
88 -> 98 ;
99 [label="X[4] <= 588.0\nmse = 0.222\nsamples = 3\nvalue = 4.333", fillcolor="#e89253"] ;
98 -> 99 ;
100 [label="mse = 0.0\nsamples = 1\nvalue = 5.0", fillcolor="#e58139"] ;
99 -> 100 ;
101 [label="mse = 0.0\nsamples = 2\nvalue = 4.0", fillcolor="#ea9a61"] ;
99 -> 101 ;
102 [label="mse = 0.0\nsamples = 2\nvalue = 5.0", fillcolor="#e58139"] ;
98 -> 102 ;
103 [label="X[3] <= 1.155\nmse = 0.388\nsamples = 14\nvalue = 2.571", fillcolor="#f2be99"] ;
87 -> 103 ;
104 [label="X[5] <= 2.293\nmse = 0.213\nsamples = 13\nvalue = 2.692", fillcolor="#f1bb94"] ;
103 -> 104 ;
105 [label="mse = 0.0\nsamples = 7\nvalue = 3.0", fillcolor="#efb388"] ;
104 -> 105 ;
106 [label="X[0] <= 2.904\nmse = 0.222\nsamples = 6\nvalue = 2.333", fillcolor="#f3c4a3"] ;
104 -> 106 ;
107 [label="mse = 0.0\nsamples = 4\nvalue = 2.0", fillcolor="#f5cdb0"] ;
106 -> 107 ;
108 [label="mse = 0.0\nsamples = 2\nvalue = 3.0", fillcolor="#efb388"] ;
106 -> 108 ;
109 [label="mse = 0.0\nsamples = 1\nvalue = 1.0", fillcolor="#fae6d7"] ;
103 -> 109 ;
110 [label="X[6] <= 34.63\nmse = 1.087\nsamples = 364\nvalue = 1.794", fillcolor="#f6d2b8"] ;
68 -> 110 ;
111 [label="X[2] <= 4.171\nmse = 1.023\nsamples = 186\nvalue = 2.204", fillcolor="#f4c7a8"] ;
110 -> 111 ;
112 [label="X[4] <= 288.0\nmse = 0.948\nsamples = 184\nvalue = 2.174", fillcolor="#f4c8a9"] ;
111 -> 112 ;
113 [label="X[7] <= -118.335\nmse = 0.24\nsamples = 5\nvalue = 0.6", fillcolor="#fcf0e7"] ;
112 -> 113 ;
114 [label="mse = 0.0\nsamples = 3\nvalue = 1.0", fillcolor="#fae6d7"] ;
113 -> 114 ;
115 [label="mse = 0.0\nsamples = 2\nvalue = 0.0", fillcolor="#ffffff"] ;
113 -> 115 ;
116 [label="X[7] <= -118.385\nmse = 0.897\nsamples = 179\nvalue = 2.218", fillcolor="#f3c7a7"] ;
112 -> 116 ;
117 [label="X[6] <= 34.175\nmse = 0.907\nsamples = 70\nvalue = 2.486", fillcolor="#f2c09d"] ;
116 -> 117 ;
118 [label="X[2] <= 2.428\nmse = 0.83\nsamples = 36\nvalue = 2.944", fillcolor="#f0b58a"] ;
117 -> 118 ;
119 [label="mse = 0.0\nsamples = 2\nvalue = 1.0", fillcolor="#fae6d7"] ;
118 -> 119 ;
120 [label="X[7] <= -118.485\nmse = 0.644\nsamples = 34\nvalue = 3.059", fillcolor="#efb286"] ;
118 -> 120 ;
121 [label="X[0] <= 2.412\nmse = 0.222\nsamples = 3\nvalue = 4.333", fillcolor="#e89253"] ;
120 -> 121 ;
122 [label="mse = 0.0\nsamples = 1\nvalue = 5.0", fillcolor="#e58139"] ;
121 -> 122 ;
123 [label="mse = 0.0\nsamples = 2\nvalue = 4.0", fillcolor="#ea9a61"] ;
121 -> 123 ;
124 [label="X[4] <= 2551.0\nmse = 0.512\nsamples = 31\nvalue = 2.935", fillcolor="#f0b58b"] ;
120 -> 124 ;
125 [label="X[1] <= 38.5\nmse = 0.373\nsamples = 27\nvalue = 2.815", fillcolor="#f0b890"] ;
124 -> 125 ;
126 [label="X[5] <= 2.251\nmse = 0.327\nsamples = 20\nvalue = 2.65", fillcolor="#f1bc96"] ;
125 -> 126 ;
127 [label="X[1] <= 24.5\nmse = 0.284\nsamples = 13\nvalue = 2.846", fillcolor="#f0b78e"] ;
126 -> 127 ;
128 [label="X[0] <= 2.976\nmse = 0.188\nsamples = 4\nvalue = 2.25", fillcolor="#f3c6a6"] ;
127 -> 128 ;
129 [label="mse = 0.0\nsamples = 3\nvalue = 2.0", fillcolor="#f5cdb0"] ;
128 -> 129 ;
130 [label="mse = 0.0\nsamples = 1\nvalue = 3.0", fillcolor="#efb388"] ;
128 -> 130 ;
131 [label="X[5] <= 2.165\nmse = 0.099\nsamples = 9\nvalue = 3.111", fillcolor="#efb184"] ;
127 -> 131 ;
132 [label="mse = 0.0\nsamples = 8\nvalue = 3.0", fillcolor="#efb388"] ;
131 -> 132 ;
133 [label="mse = 0.0\nsamples = 1\nvalue = 4.0", fillcolor="#ea9a61"] ;
131 -> 133 ;
134 [label="X[4] <= 1044.5\nmse = 0.204\nsamples = 7\nvalue = 2.286", fillcolor="#f3c5a4"] ;
126 -> 134 ;
135 [label="mse = 0.0\nsamples = 4\nvalue = 2.0", fillcolor="#f5cdb0"] ;
134 -> 135 ;
136 [label="X[4] <= 1877.0\nmse = 0.222\nsamples = 3\nvalue = 2.667", fillcolor="#f1bc95"] ;
134 -> 136 ;
137 [label="mse = 0.0\nsamples = 2\nvalue = 3.0", fillcolor="#efb388"] ;
136 -> 137 ;
138 [label="mse = 0.0\nsamples = 1\nvalue = 2.0", fillcolor="#f5cdb0"] ;
136 -> 138 ;
139 [label="X[3] <= 0.995\nmse = 0.204\nsamples = 7\nvalue = 3.286", fillcolor="#eeac7d"] ;
125 -> 139 ;
140 [label="X[7] <= -118.465\nmse = 0.222\nsamples = 3\nvalue = 3.667", fillcolor="#eca36e"] ;
139 -> 140 ;
141 [label="mse = 0.0\nsamples = 2\nvalue = 4.0", fillcolor="#ea9a61"] ;
140 -> 141 ;
142 [label="mse = 0.0\nsamples = 1\nvalue = 3.0", fillcolor="#efb388"] ;
140 -> 142 ;
143 [label="mse = 0.0\nsamples = 4\nvalue = 3.0", fillcolor="#efb388"] ;
139 -> 143 ;
144 [label="X[4] <= 3361.0\nmse = 0.688\nsamples = 4\nvalue = 3.75", fillcolor="#eca06a"] ;
124 -> 144 ;
145 [label="X[6] <= 34.055\nmse = 0.25\nsamples = 2\nvalue = 4.5", fillcolor="#e88e4d"] ;
144 -> 145 ;
146 [label="mse = 0.0\nsamples = 1\nvalue = 4.0", fillcolor="#ea9a61"] ;
145 -> 146 ;
147 [label="mse = 0.0\nsamples = 1\nvalue = 5.0", fillcolor="#e58139"] ;
145 -> 147 ;
148 [label="mse = 0.0\nsamples = 2\nvalue = 3.0", fillcolor="#efb388"] ;
144 -> 148 ;
149 [label="X[2] <= 4.058\nmse = 0.529\nsamples = 34\nvalue = 2.0", fillcolor="#f5cdb0"] ;
117 -> 149 ;
150 [label="X[7] <= -119.495\nmse = 0.272\nsamples = 32\nvalue = 1.906", fillcolor="#f5cfb4"] ;
149 -> 150 ;
151 [label="X[0] <= 2.585\nmse = 0.16\nsamples = 15\nvalue = 2.2", fillcolor="#f4c8a8"] ;
150 -> 151 ;
152 [label="mse = 0.0\nsamples = 12\nvalue = 2.0", fillcolor="#f5cdb0"] ;
151 -> 152 ;
153 [label="mse = 0.0\nsamples = 3\nvalue = 3.0", fillcolor="#efb388"] ;
151 -> 153 ;
154 [label="X[2] <= 3.688\nmse = 0.228\nsamples = 17\nvalue = 1.647", fillcolor="#f6d5be"] ;
150 -> 154 ;
155 [label="X[7] <= -118.505\nmse = 0.222\nsamples = 9\nvalue = 1.333", fillcolor="#f8ddca"] ;
154 -> 155 ;
156 [label="mse = 0.0\nsamples = 4\nvalue = 1.0", fillcolor="#fae6d7"] ;
155 -> 156 ;
157 [label="X[0] <= 2.596\nmse = 0.24\nsamples = 5\nvalue = 1.6", fillcolor="#f7d7c0"] ;
155 -> 157 ;
158 [label="X[4] <= 892.5\nmse = 0.222\nsamples = 3\nvalue = 1.333", fillcolor="#f8ddca"] ;
157 -> 158 ;
159 [label="mse = 0.0\nsamples = 1\nvalue = 2.0", fillcolor="#f5cdb0"] ;
158 -> 159 ;
160 [label="mse = 0.0\nsamples = 2\nvalue = 1.0", fillcolor="#fae6d7"] ;
158 -> 160 ;
161 [label="mse = 0.0\nsamples = 2\nvalue = 2.0", fillcolor="#f5cdb0"] ;
157 -> 161 ;
162 [label="mse = 0.0\nsamples = 8\nvalue = 2.0", fillcolor="#f5cdb0"] ;
154 -> 162 ;
163 [label="X[5] <= 2.044\nmse = 2.25\nsamples = 2\nvalue = 3.5", fillcolor="#eda774"] ;
149 -> 163 ;
164 [label="mse = 0.0\nsamples = 1\nvalue = 5.0", fillcolor="#e58139"] ;
163 -> 164 ;
165 [label="mse = 0.0\nsamples = 1\nvalue = 2.0", fillcolor="#f5cdb0"] ;
163 -> 165 ;
166 [label="X[6] <= 34.04\nmse = 0.814\nsamples = 109\nvalue = 2.046", fillcolor="#f4cbae"] ;
116 -> 166 ;
167 [label="X[6] <= 33.895\nmse = 0.411\nsamples = 35\nvalue = 1.6", fillcolor="#f7d7c0"] ;
166 -> 167 ;
168 [label="X[0] <= 1.731\nmse = 0.243\nsamples = 12\nvalue = 2.083", fillcolor="#f4caac"] ;
167 -> 168 ;
169 [label="mse = 0.0\nsamples = 2\nvalue = 3.0", fillcolor="#efb388"] ;
168 -> 169 ;
170 [label="X[0] <= 1.936\nmse = 0.09\nsamples = 10\nvalue = 1.9", fillcolor="#f5cfb4"] ;
168 -> 170 ;
171 [label="mse = 0.0\nsamples = 1\nvalue = 1.0", fillcolor="#fae6d7"] ;
170 -> 171 ;
172 [label="mse = 0.0\nsamples = 9\nvalue = 2.0", fillcolor="#f5cdb0"] ;
170 -> 172 ;
173 [label="X[0] <= 2.536\nmse = 0.314\nsamples = 23\nvalue = 1.348", fillcolor="#f8ddca"] ;
167 -> 173 ;
174 [label="X[2] <= 3.403\nmse = 0.122\nsamples = 14\nvalue = 1.143", fillcolor="#f9e2d2"] ;
173 -> 174 ;
175 [label="X[0] <= 1.414\nmse = 0.24\nsamples = 5\nvalue = 1.4", fillcolor="#f8dcc8"] ;
174 -> 175 ;
176 [label="mse = 0.0\nsamples = 3\nvalue = 1.0", fillcolor="#fae6d7"] ;
175 -> 176 ;
177 [label="mse = 0.0\nsamples = 2\nvalue = 2.0", fillcolor="#f5cdb0"] ;
175 -> 177 ;
178 [label="mse = 0.0\nsamples = 9\nvalue = 1.0", fillcolor="#fae6d7"] ;
174 -> 178 ;
179 [label="X[0] <= 2.594\nmse = 0.444\nsamples = 9\nvalue = 1.667", fillcolor="#f6d5bd"] ;
173 -> 179 ;
180 [label="mse = 0.0\nsamples = 1\nvalue = 3.0", fillcolor="#efb388"] ;
179 -> 180 ;
181 [label="X[2] <= 3.333\nmse = 0.25\nsamples = 8\nvalue = 1.5", fillcolor="#f7d9c4"] ;
179 -> 181 ;
182 [label="mse = 0.0\nsamples = 2\nvalue = 1.0", fillcolor="#fae6d7"] ;
181 -> 182 ;
183 [label="X[2] <= 3.677\nmse = 0.222\nsamples = 6\nvalue = 1.667", fillcolor="#f6d5bd"] ;
181 -> 183 ;
184 [label="mse = 0.0\nsamples = 3\nvalue = 2.0", fillcolor="#f5cdb0"] ;
183 -> 184 ;
185 [label="X[1] <= 35.0\nmse = 0.222\nsamples = 3\nvalue = 1.333", fillcolor="#f8ddca"] ;
183 -> 185 ;
186 [label="mse = 0.0\nsamples = 2\nvalue = 1.0", fillcolor="#fae6d7"] ;
185 -> 186 ;
187 [label="mse = 0.0\nsamples = 1\nvalue = 2.0", fillcolor="#f5cdb0"] ;
185 -> 187 ;
188 [label="X[7] <= -118.305\nmse = 0.867\nsamples = 74\nvalue = 2.257", fillcolor="#f3c6a6"] ;
166 -> 188 ;
189 [label="X[6] <= 34.075\nmse = 0.875\nsamples = 51\nvalue = 2.451", fillcolor="#f2c19e"] ;
188 -> 189 ;
190 [label="X[5] <= 2.469\nmse = 1.188\nsamples = 8\nvalue = 3.25", fillcolor="#eead7e"] ;
189 -> 190 ;
191 [label="X[5] <= 2.249\nmse = 0.531\nsamples = 7\nvalue = 3.571", fillcolor="#eca572"] ;
190 -> 191 ;
192 [label="X[1] <= 30.5\nmse = 0.16\nsamples = 5\nvalue = 3.2", fillcolor="#eeae80"] ;
191 -> 192 ;
193 [label="mse = 0.0\nsamples = 1\nvalue = 4.0", fillcolor="#ea9a61"] ;
192 -> 193 ;
194 [label="mse = 0.0\nsamples = 4\nvalue = 3.0", fillcolor="#efb388"] ;
192 -> 194 ;
195 [label="X[6] <= 34.065\nmse = 0.25\nsamples = 2\nvalue = 4.5", fillcolor="#e88e4d"] ;
191 -> 195 ;
196 [label="mse = 0.0\nsamples = 1\nvalue = 4.0", fillcolor="#ea9a61"] ;
195 -> 196 ;
197 [label="mse = 0.0\nsamples = 1\nvalue = 5.0", fillcolor="#e58139"] ;
195 -> 197 ;
198 [label="mse = 0.0\nsamples = 1\nvalue = 1.0", fillcolor="#fae6d7"] ;
190 -> 198 ;
199 [label="X[6] <= 34.135\nmse = 0.676\nsamples = 43\nvalue = 2.302", fillcolor="#f3c5a4"] ;
189 -> 199 ;
200 [label="X[6] <= 34.105\nmse = 0.645\nsamples = 35\nvalue = 2.429", fillcolor="#f2c29f"] ;
199 -> 200 ;
201 [label="X[1] <= 49.5\nmse = 0.527\nsamples = 32\nvalue = 2.312", fillcolor="#f3c5a3"] ;
200 -> 201 ;
202 [label="X[2] <= 3.766\nmse = 0.487\nsamples = 31\nvalue = 2.355", fillcolor="#f3c4a2"] ;
201 -> 202 ;
203 [label="X[2] <= 2.735\nmse = 0.485\nsamples = 26\nvalue = 2.231", fillcolor="#f3c7a7"] ;
202 -> 203 ;
204 [label="X[0] <= 1.358\nmse = 0.806\nsamples = 6\nvalue = 1.833", fillcolor="#f5d1b6"] ;
203 -> 204 ;
205 [label="mse = 0.0\nsamples = 1\nvalue = 3.0", fillcolor="#efb388"] ;
204 -> 205 ;
206 [label="X[3] <= 1.073\nmse = 0.64\nsamples = 5\nvalue = 1.6", fillcolor="#f7d7c0"] ;
204 -> 206 ;
207 [label="X[5] <= 2.433\nmse = 0.25\nsamples = 2\nvalue = 2.5", fillcolor="#f2c09c"] ;
206 -> 207 ;
208 [label="mse = 0.0\nsamples = 1\nvalue = 3.0", fillcolor="#efb388"] ;
207 -> 208 ;
209 [label="mse = 0.0\nsamples = 1\nvalue = 2.0", fillcolor="#f5cdb0"] ;
207 -> 209 ;
210 [label="mse = 0.0\nsamples = 3\nvalue = 1.0", fillcolor="#fae6d7"] ;
206 -> 210 ;
211 [label="X[2] <= 2.852\nmse = 0.327\nsamples = 20\nvalue = 2.35", fillcolor="#f3c4a2"] ;
203 -> 211 ;
212 [label="mse = 0.0\nsamples = 1\nvalue = 4.0", fillcolor="#ea9a61"] ;
211 -> 212 ;
213 [label="X[0] <= 2.59\nmse = 0.194\nsamples = 19\nvalue = 2.263", fillcolor="#f3c6a5"] ;
211 -> 213 ;
214 [label="X[0] <= 1.8\nmse = 0.122\nsamples = 14\nvalue = 2.143", fillcolor="#f4c9aa"] ;
213 -> 214 ;
215 [label="X[4] <= 1161.5\nmse = 0.222\nsamples = 3\nvalue = 2.667", fillcolor="#f1bc95"] ;
214 -> 215 ;
216 [label="mse = 0.0\nsamples = 1\nvalue = 2.0", fillcolor="#f5cdb0"] ;
215 -> 216 ;
217 [label="mse = 0.0\nsamples = 2\nvalue = 3.0", fillcolor="#efb388"] ;
215 -> 217 ;
218 [label="mse = 0.0\nsamples = 11\nvalue = 2.0", fillcolor="#f5cdb0"] ;
214 -> 218 ;
219 [label="X[5] <= 1.882\nmse = 0.24\nsamples = 5\nvalue = 2.6", fillcolor="#f1bd98"] ;
213 -> 219 ;
220 [label="mse = 0.0\nsamples = 2\nvalue = 3.0", fillcolor="#efb388"] ;
219 -> 220 ;
221 [label="X[5] <= 1.978\nmse = 0.222\nsamples = 3\nvalue = 2.333", fillcolor="#f3c4a3"] ;
219 -> 221 ;
222 [label="mse = 0.0\nsamples = 2\nvalue = 2.0", fillcolor="#f5cdb0"] ;
221 -> 222 ;
223 [label="mse = 0.0\nsamples = 1\nvalue = 3.0", fillcolor="#efb388"] ;
221 -> 223 ;
224 [label="mse = 0.0\nsamples = 5\nvalue = 3.0", fillcolor="#efb388"] ;
202 -> 224 ;
225 [label="mse = 0.0\nsamples = 1\nvalue = 1.0", fillcolor="#fae6d7"] ;
201 -> 225 ;
226 [label="X[4] <= 1361.5\nmse = 0.222\nsamples = 3\nvalue = 3.667", fillcolor="#eca36e"] ;
200 -> 226 ;
227 [label="mse = 0.0\nsamples = 1\nvalue = 3.0", fillcolor="#efb388"] ;
226 -> 227 ;
228 [label="mse = 0.0\nsamples = 2\nvalue = 4.0", fillcolor="#ea9a61"] ;
226 -> 228 ;
229 [label="X[5] <= 1.984\nmse = 0.438\nsamples = 8\nvalue = 1.75", fillcolor="#f6d3ba"] ;
199 -> 229 ;
230 [label="X[0] <= 1.454\nmse = 0.188\nsamples = 4\nvalue = 2.25", fillcolor="#f3c6a6"] ;
229 -> 230 ;
231 [label="mse = 0.0\nsamples = 1\nvalue = 3.0", fillcolor="#efb388"] ;
230 -> 231 ;
232 [label="mse = 0.0\nsamples = 3\nvalue = 2.0", fillcolor="#f5cdb0"] ;
230 -> 232 ;
233 [label="X[1] <= 42.5\nmse = 0.188\nsamples = 4\nvalue = 1.25", fillcolor="#f8e0ce"] ;
229 -> 233 ;
234 [label="mse = 0.0\nsamples = 3\nvalue = 1.0", fillcolor="#fae6d7"] ;
233 -> 234 ;
235 [label="mse = 0.0\nsamples = 1\nvalue = 2.0", fillcolor="#f5cdb0"] ;
233 -> 235 ;
236 [label="X[6] <= 34.065\nmse = 0.578\nsamples = 23\nvalue = 1.826", fillcolor="#f6d1b7"] ;
188 -> 236 ;
237 [label="X[3] <= 1.08\nmse = 0.25\nsamples = 2\nvalue = 0.5", fillcolor="#fcf2eb"] ;
236 -> 237 ;
238 [label="mse = 0.0\nsamples = 1\nvalue = 1.0", fillcolor="#fae6d7"] ;
237 -> 238 ;
239 [label="mse = 0.0\nsamples = 1\nvalue = 0.0", fillcolor="#ffffff"] ;
237 -> 239 ;
240 [label="X[2] <= 2.385\nmse = 0.426\nsamples = 21\nvalue = 1.952", fillcolor="#f5ceb2"] ;
236 -> 240 ;
241 [label="mse = 0.0\nsamples = 2\nvalue = 3.0", fillcolor="#efb388"] ;
240 -> 241 ;
242 [label="X[5] <= 2.401\nmse = 0.343\nsamples = 19\nvalue = 1.842", fillcolor="#f5d1b6"] ;
240 -> 242 ;
243 [label="X[2] <= 2.643\nmse = 0.209\nsamples = 14\nvalue = 2.071", fillcolor="#f4cbad"] ;
242 -> 243 ;
244 [label="mse = 0.0\nsamples = 1\nvalue = 1.0", fillcolor="#fae6d7"] ;
243 -> 244 ;
245 [label="X[2] <= 2.718\nmse = 0.13\nsamples = 13\nvalue = 2.154", fillcolor="#f4c9aa"] ;
243 -> 245 ;
246 [label="mse = 0.0\nsamples = 1\nvalue = 3.0", fillcolor="#efb388"] ;
245 -> 246 ;
247 [label="X[2] <= 4.012\nmse = 0.076\nsamples = 12\nvalue = 2.083", fillcolor="#f4caac"] ;
245 -> 247 ;
248 [label="mse = 0.0\nsamples = 10\nvalue = 2.0", fillcolor="#f5cdb0"] ;
247 -> 248 ;
249 [label="X[4] <= 1512.0\nmse = 0.25\nsamples = 2\nvalue = 2.5", fillcolor="#f2c09c"] ;
247 -> 249 ;
250 [label="mse = 0.0\nsamples = 1\nvalue = 2.0", fillcolor="#f5cdb0"] ;
249 -> 250 ;
251 [label="mse = 0.0\nsamples = 1\nvalue = 3.0", fillcolor="#efb388"] ;
249 -> 251 ;
252 [label="X[1] <= 21.5\nmse = 0.16\nsamples = 5\nvalue = 1.2", fillcolor="#f9e1cf"] ;
242 -> 252 ;
253 [label="mse = 0.0\nsamples = 1\nvalue = 2.0", fillcolor="#f5cdb0"] ;
252 -> 253 ;
254 [label="mse = 0.0\nsamples = 4\nvalue = 1.0", fillcolor="#fae6d7"] ;
252 -> 254 ;
255 [label="mse = 0.0\nsamples = 2\nvalue = 5.0", fillcolor="#e58139"] ;
111 -> 255 ;
256 [label="X[7] <= -121.755\nmse = 0.794\nsamples = 178\nvalue = 1.365", fillcolor="#f8ddc9"] ;
110 -> 256 ;
257 [label="X[6] <= 37.615\nmse = 0.633\nsamples = 136\nvalue = 1.618", fillcolor="#f7d6bf"] ;
256 -> 257 ;
258 [label="X[5] <= 1.876\nmse = 0.752\nsamples = 57\nvalue = 2.053", fillcolor="#f4cbae"] ;
257 -> 258 ;
259 [label="X[5] <= 1.847\nmse = 1.778\nsamples = 9\nvalue = 3.0", fillcolor="#efb388"] ;
258 -> 259 ;
260 [label="X[3] <= 1.044\nmse = 0.816\nsamples = 7\nvalue = 2.429", fillcolor="#f2c29f"] ;
259 -> 260 ;
261 [label="X[5] <= 1.75\nmse = 0.188\nsamples = 4\nvalue = 1.75", fillcolor="#f6d3ba"] ;
260 -> 261 ;
262 [label="mse = 0.0\nsamples = 1\nvalue = 1.0", fillcolor="#fae6d7"] ;
261 -> 262 ;
263 [label="mse = 0.0\nsamples = 3\nvalue = 2.0", fillcolor="#f5cdb0"] ;
261 -> 263 ;
264 [label="X[2] <= 3.126\nmse = 0.222\nsamples = 3\nvalue = 3.333", fillcolor="#eeab7b"] ;
260 -> 264 ;
265 [label="mse = 0.0\nsamples = 1\nvalue = 4.0", fillcolor="#ea9a61"] ;
264 -> 265 ;
266 [label="mse = 0.0\nsamples = 2\nvalue = 3.0", fillcolor="#efb388"] ;
264 -> 266 ;
267 [label="mse = 0.0\nsamples = 2\nvalue = 5.0", fillcolor="#e58139"] ;
259 -> 267 ;
268 [label="X[3] <= 1.107\nmse = 0.359\nsamples = 48\nvalue = 1.875", fillcolor="#f5d0b5"] ;
258 -> 268 ;
269 [label="X[6] <= 37.335\nmse = 0.268\nsamples = 41\nvalue = 1.976", fillcolor="#f5cdb1"] ;
268 -> 269 ;
270 [label="X[7] <= -121.885\nmse = 0.188\nsamples = 24\nvalue = 1.75", fillcolor="#f6d3ba"] ;
269 -> 270 ;
271 [label="X[0] <= 2.972\nmse = 0.099\nsamples = 18\nvalue = 1.889", fillcolor="#f5cfb4"] ;
270 -> 271 ;
272 [label="mse = 0.0\nsamples = 14\nvalue = 2.0", fillcolor="#f5cdb0"] ;
271 -> 272 ;
273 [label="X[1] <= 33.5\nmse = 0.25\nsamples = 4\nvalue = 1.5", fillcolor="#f7d9c4"] ;
271 -> 273 ;
274 [label="mse = 0.0\nsamples = 2\nvalue = 2.0", fillcolor="#f5cdb0"] ;
273 -> 274 ;
275 [label="mse = 0.0\nsamples = 2\nvalue = 1.0", fillcolor="#fae6d7"] ;
273 -> 275 ;
276 [label="X[3] <= 1.077\nmse = 0.222\nsamples = 6\nvalue = 1.333", fillcolor="#f8ddca"] ;
270 -> 276 ;
277 [label="X[1] <= 29.0\nmse = 0.222\nsamples = 3\nvalue = 1.667", fillcolor="#f6d5bd"] ;
276 -> 277 ;
278 [label="mse = 0.0\nsamples = 2\nvalue = 2.0", fillcolor="#f5cdb0"] ;
277 -> 278 ;
279 [label="mse = 0.0\nsamples = 1\nvalue = 1.0", fillcolor="#fae6d7"] ;
277 -> 279 ;
280 [label="mse = 0.0\nsamples = 3\nvalue = 1.0", fillcolor="#fae6d7"] ;
276 -> 280 ;
281 [label="X[2] <= 3.294\nmse = 0.208\nsamples = 17\nvalue = 2.294", fillcolor="#f3c5a4"] ;
269 -> 281 ;
282 [label="mse = 0.0\nsamples = 2\nvalue = 3.0", fillcolor="#efb388"] ;
281 -> 282 ;
283 [label="X[7] <= -122.055\nmse = 0.16\nsamples = 15\nvalue = 2.2", fillcolor="#f4c8a8"] ;
281 -> 283 ;
284 [label="X[2] <= 3.696\nmse = 0.245\nsamples = 7\nvalue = 2.429", fillcolor="#f2c29f"] ;
283 -> 284 ;
285 [label="mse = 0.0\nsamples = 3\nvalue = 2.0", fillcolor="#f5cdb0"] ;
284 -> 285 ;
286 [label="X[2] <= 4.06\nmse = 0.188\nsamples = 4\nvalue = 2.75", fillcolor="#f1ba92"] ;
284 -> 286 ;
287 [label="mse = 0.0\nsamples = 3\nvalue = 3.0", fillcolor="#efb388"] ;
286 -> 287 ;
288 [label="mse = 0.0\nsamples = 1\nvalue = 2.0", fillcolor="#f5cdb0"] ;
286 -> 288 ;
289 [label="mse = 0.0\nsamples = 8\nvalue = 2.0", fillcolor="#f5cdb0"] ;
283 -> 289 ;
290 [label="X[2] <= 3.603\nmse = 0.49\nsamples = 7\nvalue = 1.286", fillcolor="#f8dfcc"] ;
268 -> 290 ;
291 [label="X[7] <= -122.175\nmse = 0.222\nsamples = 3\nvalue = 0.667", fillcolor="#fceee5"] ;
290 -> 291 ;
292 [label="mse = 0.0\nsamples = 1\nvalue = 0.0", fillcolor="#ffffff"] ;
291 -> 292 ;
293 [label="mse = 0.0\nsamples = 2\nvalue = 1.0", fillcolor="#fae6d7"] ;
291 -> 293 ;
294 [label="X[7] <= -121.9\nmse = 0.188\nsamples = 4\nvalue = 1.75", fillcolor="#f6d3ba"] ;
290 -> 294 ;
295 [label="mse = 0.0\nsamples = 3\nvalue = 2.0", fillcolor="#f5cdb0"] ;
294 -> 295 ;
296 [label="mse = 0.0\nsamples = 1\nvalue = 1.0", fillcolor="#fae6d7"] ;
294 -> 296 ;
297 [label="X[5] <= 2.052\nmse = 0.313\nsamples = 79\nvalue = 1.304", fillcolor="#f8decb"] ;
257 -> 297 ;
298 [label="X[2] <= 2.87\nmse = 0.346\nsamples = 41\nvalue = 1.537", fillcolor="#f7d8c2"] ;
297 -> 298 ;
299 [label="X[3] <= 0.894\nmse = 0.16\nsamples = 5\nvalue = 0.8", fillcolor="#fbebdf"] ;
298 -> 299 ;
300 [label="mse = 0.0\nsamples = 1\nvalue = 0.0", fillcolor="#ffffff"] ;
299 -> 300 ;
301 [label="mse = 0.0\nsamples = 4\nvalue = 1.0", fillcolor="#fae6d7"] ;
299 -> 301 ;
302 [label="X[2] <= 4.057\nmse = 0.286\nsamples = 36\nvalue = 1.639", fillcolor="#f6d6be"] ;
298 -> 302 ;
303 [label="X[6] <= 37.85\nmse = 0.32\nsamples = 28\nvalue = 1.536", fillcolor="#f7d8c2"] ;
302 -> 303 ;
304 [label="X[5] <= 1.932\nmse = 0.228\nsamples = 17\nvalue = 1.353", fillcolor="#f8ddc9"] ;
303 -> 304 ;
305 [label="X[1] <= 40.0\nmse = 0.25\nsamples = 12\nvalue = 1.5", fillcolor="#f7d9c4"] ;
304 -> 305 ;
306 [label="X[3] <= 1.011\nmse = 0.222\nsamples = 9\nvalue = 1.333", fillcolor="#f8ddca"] ;
305 -> 306 ;
307 [label="mse = 0.0\nsamples = 1\nvalue = 2.0", fillcolor="#f5cdb0"] ;
306 -> 307 ;
308 [label="X[3] <= 1.13\nmse = 0.188\nsamples = 8\nvalue = 1.25", fillcolor="#f8e0ce"] ;
306 -> 308 ;
309 [label="X[1] <= 31.5\nmse = 0.122\nsamples = 7\nvalue = 1.143", fillcolor="#f9e2d2"] ;
308 -> 309 ;
310 [label="mse = 0.0\nsamples = 5\nvalue = 1.0", fillcolor="#fae6d7"] ;
309 -> 310 ;
311 [label="X[7] <= -122.255\nmse = 0.25\nsamples = 2\nvalue = 1.5", fillcolor="#f7d9c4"] ;
309 -> 311 ;
312 [label="mse = 0.0\nsamples = 1\nvalue = 1.0", fillcolor="#fae6d7"] ;
311 -> 312 ;
313 [label="mse = 0.0\nsamples = 1\nvalue = 2.0", fillcolor="#f5cdb0"] ;
311 -> 313 ;
314 [label="mse = 0.0\nsamples = 1\nvalue = 2.0", fillcolor="#f5cdb0"] ;
308 -> 314 ;
315 [label="mse = 0.0\nsamples = 3\nvalue = 2.0", fillcolor="#f5cdb0"] ;
305 -> 315 ;
316 [label="mse = 0.0\nsamples = 5\nvalue = 1.0", fillcolor="#fae6d7"] ;
304 -> 316 ;
317 [label="X[7] <= -122.275\nmse = 0.331\nsamples = 11\nvalue = 1.818", fillcolor="#f6d1b7"] ;
303 -> 317 ;
318 [label="X[4] <= 699.0\nmse = 0.188\nsamples = 4\nvalue = 1.25", fillcolor="#f8e0ce"] ;
317 -> 318 ;
319 [label="mse = 0.0\nsamples = 1\nvalue = 2.0", fillcolor="#f5cdb0"] ;
318 -> 319 ;
320 [label="mse = 0.0\nsamples = 3\nvalue = 1.0", fillcolor="#fae6d7"] ;
318 -> 320 ;
321 [label="X[3] <= 0.995\nmse = 0.122\nsamples = 7\nvalue = 2.143", fillcolor="#f4c9aa"] ;
317 -> 321 ;
322 [label="mse = 0.0\nsamples = 1\nvalue = 3.0", fillcolor="#efb388"] ;
321 -> 322 ;
323 [label="mse = 0.0\nsamples = 6\nvalue = 2.0", fillcolor="#f5cdb0"] ;
321 -> 323 ;
324 [label="mse = 0.0\nsamples = 8\nvalue = 2.0", fillcolor="#f5cdb0"] ;
302 -> 324 ;
325 [label="X[4] <= 1781.5\nmse = 0.155\nsamples = 38\nvalue = 1.053", fillcolor="#fae4d5"] ;
297 -> 325 ;
326 [label="X[0] <= 0.768\nmse = 0.087\nsamples = 34\nvalue = 0.971", fillcolor="#fae7d9"] ;
325 -> 326 ;
327 [label="mse = 0.0\nsamples = 1\nvalue = 0.0", fillcolor="#ffffff"] ;
326 -> 327 ;
328 [label="X[6] <= 37.885\nmse = 0.061\nsamples = 33\nvalue = 1.0", fillcolor="#fae6d7"] ;
326 -> 328 ;
329 [label="X[2] <= 3.436\nmse = 0.031\nsamples = 31\nvalue = 0.968", fillcolor="#fae7d9"] ;
328 -> 329 ;
330 [label="X[4] <= 336.5\nmse = 0.188\nsamples = 4\nvalue = 0.75", fillcolor="#fbece1"] ;
329 -> 330 ;
331 [label="mse = 0.0\nsamples = 1\nvalue = 0.0", fillcolor="#ffffff"] ;
330 -> 331 ;
332 [label="mse = 0.0\nsamples = 3\nvalue = 1.0", fillcolor="#fae6d7"] ;
330 -> 332 ;
333 [label="mse = 0.0\nsamples = 27\nvalue = 1.0", fillcolor="#fae6d7"] ;
329 -> 333 ;
334 [label="X[5] <= 2.222\nmse = 0.25\nsamples = 2\nvalue = 1.5", fillcolor="#f7d9c4"] ;
328 -> 334 ;
335 [label="mse = 0.0\nsamples = 1\nvalue = 2.0", fillcolor="#f5cdb0"] ;
334 -> 335 ;
336 [label="mse = 0.0\nsamples = 1\nvalue = 1.0", fillcolor="#fae6d7"] ;
334 -> 336 ;
337 [label="X[4] <= 2654.0\nmse = 0.188\nsamples = 4\nvalue = 1.75", fillcolor="#f6d3ba"] ;
325 -> 337 ;
338 [label="mse = 0.0\nsamples = 3\nvalue = 2.0", fillcolor="#f5cdb0"] ;
337 -> 338 ;
339 [label="mse = 0.0\nsamples = 1\nvalue = 1.0", fillcolor="#fae6d7"] ;
337 -> 339 ;
340 [label="X[6] <= 35.36\nmse = 0.438\nsamples = 42\nvalue = 0.548", fillcolor="#fcf1e9"] ;
256 -> 340 ;
341 [label="X[5] <= 2.108\nmse = 0.231\nsamples = 11\nvalue = 1.364", fillcolor="#f8ddc9"] ;
340 -> 341 ;
342 [label="mse = 0.0\nsamples = 3\nvalue = 2.0", fillcolor="#f5cdb0"] ;
341 -> 342 ;
343 [label="X[1] <= 42.5\nmse = 0.109\nsamples = 8\nvalue = 1.125", fillcolor="#f9e3d2"] ;
341 -> 343 ;
344 [label="mse = 0.0\nsamples = 7\nvalue = 1.0", fillcolor="#fae6d7"] ;
343 -> 344 ;
345 [label="mse = 0.0\nsamples = 1\nvalue = 2.0", fillcolor="#f5cdb0"] ;
343 -> 345 ;
346 [label="X[3] <= 1.057\nmse = 0.191\nsamples = 31\nvalue = 0.258", fillcolor="#fef8f5"] ;
340 -> 346 ;
347 [label="X[1] <= 18.5\nmse = 0.244\nsamples = 19\nvalue = 0.421", fillcolor="#fdf4ee"] ;
346 -> 347 ;
348 [label="X[6] <= 36.825\nmse = 0.222\nsamples = 9\nvalue = 0.667", fillcolor="#fceee5"] ;
347 -> 348 ;
349 [label="X[2] <= 3.817\nmse = 0.24\nsamples = 5\nvalue = 0.4", fillcolor="#fdf5ef"] ;
348 -> 349 ;
350 [label="mse = 0.0\nsamples = 2\nvalue = 1.0", fillcolor="#fae6d7"] ;
349 -> 350 ;
351 [label="mse = 0.0\nsamples = 3\nvalue = 0.0", fillcolor="#ffffff"] ;
349 -> 351 ;
352 [label="mse = 0.0\nsamples = 4\nvalue = 1.0", fillcolor="#fae6d7"] ;
348 -> 352 ;
353 [label="X[7] <= -121.11\nmse = 0.16\nsamples = 10\nvalue = 0.2", fillcolor="#fefaf7"] ;
347 -> 353 ;
354 [label="X[3] <= 0.956\nmse = 0.222\nsamples = 3\nvalue = 0.667", fillcolor="#fceee5"] ;
353 -> 354 ;
355 [label="mse = 0.0\nsamples = 1\nvalue = 0.0", fillcolor="#ffffff"] ;
354 -> 355 ;
356 [label="mse = 0.0\nsamples = 2\nvalue = 1.0", fillcolor="#fae6d7"] ;
354 -> 356 ;
357 [label="mse = 0.0\nsamples = 7\nvalue = 0.0", fillcolor="#ffffff"] ;
353 -> 357 ;
358 [label="mse = 0.0\nsamples = 12\nvalue = 0.0", fillcolor="#ffffff"] ;
346 -> 358 ;
359 [label="X[7] <= -117.145\nmse = 0.518\nsamples = 316\nvalue = 1.228", fillcolor="#f9e0ce"] ;
5 -> 359 ;
360 [label="X[5] <= 1.324\nmse = 0.644\nsamples = 222\nvalue = 1.356", fillcolor="#f8ddc9"] ;
359 -> 360 ;
361 [label="X[7] <= -118.17\nmse = 0.38\nsamples = 11\nvalue = 0.273", fillcolor="#fef8f4"] ;
360 -> 361 ;
362 [label="mse = 0.0\nsamples = 1\nvalue = 2.0", fillcolor="#f5cdb0"] ;
361 -> 362 ;
363 [label="X[0] <= 2.798\nmse = 0.09\nsamples = 10\nvalue = 0.1", fillcolor="#fefcfb"] ;
361 -> 363 ;
364 [label="mse = 0.0\nsamples = 9\nvalue = 0.0", fillcolor="#ffffff"] ;
363 -> 364 ;
365 [label="mse = 0.0\nsamples = 1\nvalue = 1.0", fillcolor="#fae6d7"] ;
363 -> 365 ;
366 [label="X[1] <= 23.5\nmse = 0.593\nsamples = 211\nvalue = 1.412", fillcolor="#f8dbc7"] ;
360 -> 366 ;
367 [label="X[5] <= 1.375\nmse = 0.447\nsamples = 73\nvalue = 1.137", fillcolor="#f9e2d2"] ;
366 -> 367 ;
368 [label="X[6] <= 33.985\nmse = 0.25\nsamples = 2\nvalue = 2.5", fillcolor="#f2c09c"] ;
367 -> 368 ;
369 [label="mse = 0.0\nsamples = 1\nvalue = 3.0", fillcolor="#efb388"] ;
368 -> 369 ;
370 [label="mse = 0.0\nsamples = 1\nvalue = 2.0", fillcolor="#f5cdb0"] ;
368 -> 370 ;
371 [label="X[5] <= 2.485\nmse = 0.399\nsamples = 71\nvalue = 1.099", fillcolor="#f9e3d3"] ;
367 -> 371 ;
372 [label="X[6] <= 33.765\nmse = 0.344\nsamples = 69\nvalue = 1.058", fillcolor="#f9e4d5"] ;
371 -> 372 ;
373 [label="X[7] <= -117.875\nmse = 0.562\nsamples = 27\nvalue = 1.259", fillcolor="#f8dfcd"] ;
372 -> 373 ;
374 [label="X[5] <= 1.933\nmse = 0.4\nsamples = 5\nvalue = 2.0", fillcolor="#f5cdb0"] ;
373 -> 374 ;
375 [label="mse = 0.0\nsamples = 1\nvalue = 3.0", fillcolor="#efb388"] ;
374 -> 375 ;
376 [label="X[2] <= 3.751\nmse = 0.188\nsamples = 4\nvalue = 1.75", fillcolor="#f6d3ba"] ;
374 -> 376 ;
377 [label="mse = 0.0\nsamples = 1\nvalue = 1.0", fillcolor="#fae6d7"] ;
376 -> 377 ;
378 [label="mse = 0.0\nsamples = 3\nvalue = 2.0", fillcolor="#f5cdb0"] ;
376 -> 378 ;
379 [label="X[5] <= 1.585\nmse = 0.446\nsamples = 22\nvalue = 1.091", fillcolor="#f9e4d4"] ;
373 -> 379 ;
380 [label="X[3] <= 1.083\nmse = 0.222\nsamples = 3\nvalue = 0.333", fillcolor="#fdf7f2"] ;
379 -> 380 ;
381 [label="mse = 0.0\nsamples = 1\nvalue = 1.0", fillcolor="#fae6d7"] ;
380 -> 381 ;
382 [label="mse = 0.0\nsamples = 2\nvalue = 0.0", fillcolor="#ffffff"] ;
380 -> 382 ;
383 [label="X[4] <= 930.5\nmse = 0.377\nsamples = 19\nvalue = 1.211", fillcolor="#f9e0cf"] ;
379 -> 383 ;
384 [label="X[5] <= 2.073\nmse = 0.56\nsamples = 5\nvalue = 1.8", fillcolor="#f6d2b8"] ;
383 -> 384 ;
385 [label="X[5] <= 1.72\nmse = 0.222\nsamples = 3\nvalue = 2.333", fillcolor="#f3c4a3"] ;
384 -> 385 ;
386 [label="mse = 0.0\nsamples = 1\nvalue = 3.0", fillcolor="#efb388"] ;
385 -> 386 ;
387 [label="mse = 0.0\nsamples = 2\nvalue = 2.0", fillcolor="#f5cdb0"] ;
385 -> 387 ;
388 [label="mse = 0.0\nsamples = 2\nvalue = 1.0", fillcolor="#fae6d7"] ;
384 -> 388 ;
389 [label="X[0] <= 2.97\nmse = 0.143\nsamples = 14\nvalue = 1.0", fillcolor="#fae6d7"] ;
383 -> 389 ;
390 [label="X[3] <= 1.033\nmse = 0.071\nsamples = 13\nvalue = 0.923", fillcolor="#fae8da"] ;
389 -> 390 ;
391 [label="mse = 0.0\nsamples = 1\nvalue = 0.0", fillcolor="#ffffff"] ;
390 -> 391 ;
392 [label="mse = 0.0\nsamples = 12\nvalue = 1.0", fillcolor="#fae6d7"] ;
390 -> 392 ;
393 [label="mse = 0.0\nsamples = 1\nvalue = 2.0", fillcolor="#f5cdb0"] ;
389 -> 393 ;
394 [label="X[7] <= -117.325\nmse = 0.162\nsamples = 42\nvalue = 0.929", fillcolor="#fae8da"] ;
372 -> 394 ;
395 [label="X[2] <= 2.414\nmse = 0.124\nsamples = 40\nvalue = 0.975", fillcolor="#fae6d8"] ;
394 -> 395 ;
396 [label="mse = 0.0\nsamples = 1\nvalue = 0.0", fillcolor="#ffffff"] ;
395 -> 396 ;
397 [label="X[6] <= 34.88\nmse = 0.103\nsamples = 39\nvalue = 1.0", fillcolor="#fae6d7"] ;
395 -> 397 ;
398 [label="X[0] <= 2.937\nmse = 0.078\nsamples = 38\nvalue = 1.026", fillcolor="#fae5d6"] ;
397 -> 398 ;
399 [label="X[0] <= 2.833\nmse = 0.031\nsamples = 31\nvalue = 0.968", fillcolor="#fae7d9"] ;
398 -> 399 ;
400 [label="mse = 0.0\nsamples = 30\nvalue = 1.0", fillcolor="#fae6d7"] ;
399 -> 400 ;
401 [label="mse = 0.0\nsamples = 1\nvalue = 0.0", fillcolor="#ffffff"] ;
399 -> 401 ;
402 [label="X[3] <= 1.052\nmse = 0.204\nsamples = 7\nvalue = 1.286", fillcolor="#f8dfcc"] ;
398 -> 402 ;
403 [label="mse = 0.0\nsamples = 4\nvalue = 1.0", fillcolor="#fae6d7"] ;
402 -> 403 ;
404 [label="X[3] <= 1.074\nmse = 0.222\nsamples = 3\nvalue = 1.667", fillcolor="#f6d5bd"] ;
402 -> 404 ;
405 [label="mse = 0.0\nsamples = 2\nvalue = 2.0", fillcolor="#f5cdb0"] ;
404 -> 405 ;
406 [label="mse = 0.0\nsamples = 1\nvalue = 1.0", fillcolor="#fae6d7"] ;
404 -> 406 ;
407 [label="mse = 0.0\nsamples = 1\nvalue = 0.0", fillcolor="#ffffff"] ;
397 -> 407 ;
408 [label="mse = 0.0\nsamples = 2\nvalue = 0.0", fillcolor="#ffffff"] ;
394 -> 408 ;
409 [label="X[4] <= 839.5\nmse = 0.25\nsamples = 2\nvalue = 2.5", fillcolor="#f2c09c"] ;
371 -> 409 ;
410 [label="mse = 0.0\nsamples = 1\nvalue = 3.0", fillcolor="#efb388"] ;
409 -> 410 ;
411 [label="mse = 0.0\nsamples = 1\nvalue = 2.0", fillcolor="#f5cdb0"] ;
409 -> 411 ;
412 [label="X[3] <= 1.218\nmse = 0.609\nsamples = 138\nvalue = 1.558", fillcolor="#f7d8c1"] ;
366 -> 412 ;
413 [label="X[3] <= 1.109\nmse = 0.55\nsamples = 133\nvalue = 1.519", fillcolor="#f7d9c3"] ;
412 -> 413 ;
414 [label="X[3] <= 1.108\nmse = 0.576\nsamples = 100\nvalue = 1.62", fillcolor="#f7d6bf"] ;
413 -> 414 ;
415 [label="X[6] <= 33.855\nmse = 0.468\nsamples = 98\nvalue = 1.582", fillcolor="#f7d7c0"] ;
414 -> 415 ;
416 [label="X[5] <= 1.381\nmse = 0.303\nsamples = 60\nvalue = 1.717", fillcolor="#f6d4bb"] ;
415 -> 416 ;
417 [label="mse = 0.0\nsamples = 1\nvalue = 0.0", fillcolor="#ffffff"] ;
416 -> 417 ;
418 [label="X[2] <= 3.516\nmse = 0.257\nsamples = 59\nvalue = 1.746", fillcolor="#f6d3ba"] ;
416 -> 418 ;
419 [label="X[4] <= 867.5\nmse = 0.25\nsamples = 20\nvalue = 1.5", fillcolor="#f7d9c4"] ;
418 -> 419 ;
420 [label="X[5] <= 1.719\nmse = 0.213\nsamples = 13\nvalue = 1.692", fillcolor="#f6d4bc"] ;
419 -> 420 ;
421 [label="mse = 0.0\nsamples = 7\nvalue = 2.0", fillcolor="#f5cdb0"] ;
420 -> 421 ;
422 [label="X[2] <= 2.846\nmse = 0.222\nsamples = 6\nvalue = 1.333", fillcolor="#f8ddca"] ;
420 -> 422 ;
423 [label="mse = 0.0\nsamples = 2\nvalue = 2.0", fillcolor="#f5cdb0"] ;
422 -> 423 ;
424 [label="mse = 0.0\nsamples = 4\nvalue = 1.0", fillcolor="#fae6d7"] ;
422 -> 424 ;
425 [label="X[7] <= -117.705\nmse = 0.122\nsamples = 7\nvalue = 1.143", fillcolor="#f9e2d2"] ;
419 -> 425 ;
426 [label="mse = 0.0\nsamples = 5\nvalue = 1.0", fillcolor="#fae6d7"] ;
425 -> 426 ;
427 [label="X[4] <= 1120.5\nmse = 0.25\nsamples = 2\nvalue = 1.5", fillcolor="#f7d9c4"] ;
425 -> 427 ;
428 [label="mse = 0.0\nsamples = 1\nvalue = 2.0", fillcolor="#f5cdb0"] ;
427 -> 428 ;
429 [label="mse = 0.0\nsamples = 1\nvalue = 1.0", fillcolor="#fae6d7"] ;
427 -> 429 ;
430 [label="X[3] <= 1.065\nmse = 0.214\nsamples = 39\nvalue = 1.872", fillcolor="#f5d0b5"] ;
418 -> 430 ;
431 [label="X[3] <= 1.059\nmse = 0.197\nsamples = 26\nvalue = 1.731", fillcolor="#f6d3ba"] ;
430 -> 431 ;
432 [label="X[7] <= -117.225\nmse = 0.118\nsamples = 22\nvalue = 1.864", fillcolor="#f5d0b5"] ;
431 -> 432 ;
433 [label="mse = 0.0\nsamples = 13\nvalue = 2.0", fillcolor="#f5cdb0"] ;
432 -> 433 ;
434 [label="X[4] <= 936.5\nmse = 0.222\nsamples = 9\nvalue = 1.667", fillcolor="#f6d5bd"] ;
432 -> 434 ;
435 [label="X[2] <= 3.753\nmse = 0.188\nsamples = 4\nvalue = 1.25", fillcolor="#f8e0ce"] ;
434 -> 435 ;
436 [label="mse = 0.0\nsamples = 1\nvalue = 2.0", fillcolor="#f5cdb0"] ;
435 -> 436 ;
437 [label="mse = 0.0\nsamples = 3\nvalue = 1.0", fillcolor="#fae6d7"] ;
435 -> 437 ;
438 [label="mse = 0.0\nsamples = 5\nvalue = 2.0", fillcolor="#f5cdb0"] ;
434 -> 438 ;
439 [label="mse = 0.0\nsamples = 4\nvalue = 1.0", fillcolor="#fae6d7"] ;
431 -> 439 ;
440 [label="X[5] <= 1.675\nmse = 0.13\nsamples = 13\nvalue = 2.154", fillcolor="#f4c9aa"] ;
430 -> 440 ;
441 [label="mse = 0.0\nsamples = 2\nvalue = 3.0", fillcolor="#efb388"] ;
440 -> 441 ;
442 [label="mse = 0.0\nsamples = 11\nvalue = 2.0", fillcolor="#f5cdb0"] ;
440 -> 442 ;
443 [label="X[0] <= 2.005\nmse = 0.654\nsamples = 38\nvalue = 1.368", fillcolor="#f8ddc9"] ;
415 -> 443 ;
444 [label="X[0] <= 1.981\nmse = 1.654\nsamples = 9\nvalue = 1.889", fillcolor="#f5cfb4"] ;
443 -> 444 ;
445 [label="X[2] <= 2.493\nmse = 0.5\nsamples = 8\nvalue = 1.5", fillcolor="#f7d9c4"] ;
444 -> 445 ;
446 [label="X[5] <= 2.301\nmse = 0.25\nsamples = 2\nvalue = 2.5", fillcolor="#f2c09c"] ;
445 -> 446 ;
447 [label="mse = 0.0\nsamples = 1\nvalue = 3.0", fillcolor="#efb388"] ;
446 -> 447 ;
448 [label="mse = 0.0\nsamples = 1\nvalue = 2.0", fillcolor="#f5cdb0"] ;
446 -> 448 ;
449 [label="X[7] <= -118.255\nmse = 0.139\nsamples = 6\nvalue = 1.167", fillcolor="#f9e2d1"] ;
445 -> 449 ;
450 [label="mse = 0.0\nsamples = 1\nvalue = 2.0", fillcolor="#f5cdb0"] ;
449 -> 450 ;
451 [label="mse = 0.0\nsamples = 5\nvalue = 1.0", fillcolor="#fae6d7"] ;
449 -> 451 ;
452 [label="mse = 0.0\nsamples = 1\nvalue = 5.0", fillcolor="#e58139"] ;
444 -> 452 ;
453 [label="X[7] <= -118.22\nmse = 0.233\nsamples = 29\nvalue = 1.207", fillcolor="#f9e1cf"] ;
443 -> 453 ;
454 [label="X[4] <= 329.0\nmse = 0.234\nsamples = 8\nvalue = 1.625", fillcolor="#f7d6bf"] ;
453 -> 454 ;
455 [label="mse = 0.0\nsamples = 2\nvalue = 1.0", fillcolor="#fae6d7"] ;
454 -> 455 ;
456 [label="X[0] <= 2.397\nmse = 0.139\nsamples = 6\nvalue = 1.833", fillcolor="#f5d1b6"] ;
454 -> 456 ;
457 [label="mse = 0.0\nsamples = 1\nvalue = 1.0", fillcolor="#fae6d7"] ;
456 -> 457 ;
458 [label="mse = 0.0\nsamples = 5\nvalue = 2.0", fillcolor="#f5cdb0"] ;
456 -> 458 ;
459 [label="X[0] <= 2.11\nmse = 0.141\nsamples = 21\nvalue = 1.048", fillcolor="#fae5d6"] ;
453 -> 459 ;
460 [label="mse = 0.0\nsamples = 1\nvalue = 0.0", fillcolor="#ffffff"] ;
459 -> 460 ;
461 [label="X[4] <= 2800.5\nmse = 0.09\nsamples = 20\nvalue = 1.1", fillcolor="#f9e3d3"] ;
459 -> 461 ;
462 [label="X[1] <= 44.0\nmse = 0.05\nsamples = 19\nvalue = 1.053", fillcolor="#fae4d5"] ;
461 -> 462 ;
463 [label="mse = 0.0\nsamples = 17\nvalue = 1.0", fillcolor="#fae6d7"] ;
462 -> 463 ;
464 [label="X[1] <= 45.5\nmse = 0.25\nsamples = 2\nvalue = 1.5", fillcolor="#f7d9c4"] ;
462 -> 464 ;
465 [label="mse = 0.0\nsamples = 1\nvalue = 2.0", fillcolor="#f5cdb0"] ;
464 -> 465 ;
466 [label="mse = 0.0\nsamples = 1\nvalue = 1.0", fillcolor="#fae6d7"] ;
464 -> 466 ;
467 [label="mse = 0.0\nsamples = 1\nvalue = 2.0", fillcolor="#f5cdb0"] ;
461 -> 467 ;
468 [label="X[6] <= 33.45\nmse = 2.25\nsamples = 2\nvalue = 3.5", fillcolor="#eda774"] ;
414 -> 468 ;
469 [label="mse = 0.0\nsamples = 1\nvalue = 2.0", fillcolor="#f5cdb0"] ;
468 -> 469 ;
470 [label="mse = 0.0\nsamples = 1\nvalue = 5.0", fillcolor="#e58139"] ;
468 -> 470 ;
471 [label="X[5] <= 1.405\nmse = 0.349\nsamples = 33\nvalue = 1.212", fillcolor="#f9e0cf"] ;
413 -> 471 ;
472 [label="X[4] <= 1462.0\nmse = 0.25\nsamples = 2\nvalue = 2.5", fillcolor="#f2c09c"] ;
471 -> 472 ;
473 [label="mse = 0.0\nsamples = 1\nvalue = 2.0", fillcolor="#f5cdb0"] ;
472 -> 473 ;
474 [label="mse = 0.0\nsamples = 1\nvalue = 3.0", fillcolor="#efb388"] ;
472 -> 474 ;
475 [label="X[0] <= 2.58\nmse = 0.241\nsamples = 31\nvalue = 1.129", fillcolor="#f9e3d2"] ;
471 -> 475 ;
476 [label="X[5] <= 2.489\nmse = 0.16\nsamples = 25\nvalue = 1.0", fillcolor="#fae6d7"] ;
475 -> 476 ;
477 [label="X[6] <= 33.945\nmse = 0.123\nsamples = 24\nvalue = 0.958", fillcolor="#fae7d9"] ;
476 -> 477 ;
478 [label="X[0] <= 2.259\nmse = 0.052\nsamples = 18\nvalue = 1.056", fillcolor="#fae4d5"] ;
477 -> 478 ;
479 [label="mse = 0.0\nsamples = 14\nvalue = 1.0", fillcolor="#fae6d7"] ;
478 -> 479 ;
480 [label="X[7] <= -117.385\nmse = 0.188\nsamples = 4\nvalue = 1.25", fillcolor="#f8e0ce"] ;
478 -> 480 ;
481 [label="mse = 0.0\nsamples = 3\nvalue = 1.0", fillcolor="#fae6d7"] ;
480 -> 481 ;
482 [label="mse = 0.0\nsamples = 1\nvalue = 2.0", fillcolor="#f5cdb0"] ;
480 -> 482 ;
483 [label="X[7] <= -117.705\nmse = 0.222\nsamples = 6\nvalue = 0.667", fillcolor="#fceee5"] ;
477 -> 483 ;
484 [label="mse = 0.0\nsamples = 4\nvalue = 1.0", fillcolor="#fae6d7"] ;
483 -> 484 ;
485 [label="mse = 0.0\nsamples = 2\nvalue = 0.0", fillcolor="#ffffff"] ;
483 -> 485 ;
486 [label="mse = 0.0\nsamples = 1\nvalue = 2.0", fillcolor="#f5cdb0"] ;
476 -> 486 ;
487 [label="X[3] <= 1.139\nmse = 0.222\nsamples = 6\nvalue = 1.667", fillcolor="#f6d5bd"] ;
475 -> 487 ;
488 [label="mse = 0.0\nsamples = 2\nvalue = 1.0", fillcolor="#fae6d7"] ;
487 -> 488 ;
489 [label="mse = 0.0\nsamples = 4\nvalue = 2.0", fillcolor="#f5cdb0"] ;
487 -> 489 ;
490 [label="X[2] <= 3.635\nmse = 1.04\nsamples = 5\nvalue = 2.6", fillcolor="#f1bd98"] ;
412 -> 490 ;
491 [label="X[0] <= 1.697\nmse = 0.25\nsamples = 2\nvalue = 1.5", fillcolor="#f7d9c4"] ;
490 -> 491 ;
492 [label="mse = 0.0\nsamples = 1\nvalue = 1.0", fillcolor="#fae6d7"] ;
491 -> 492 ;
493 [label="mse = 0.0\nsamples = 1\nvalue = 2.0", fillcolor="#f5cdb0"] ;
491 -> 493 ;
494 [label="X[5] <= 1.686\nmse = 0.222\nsamples = 3\nvalue = 3.333", fillcolor="#eeab7b"] ;
490 -> 494 ;
495 [label="mse = 0.0\nsamples = 1\nvalue = 4.0", fillcolor="#ea9a61"] ;
494 -> 495 ;
496 [label="mse = 0.0\nsamples = 2\nvalue = 3.0", fillcolor="#efb388"] ;
494 -> 496 ;
497 [label="X[7] <= -116.335\nmse = 0.09\nsamples = 94\nvalue = 0.926", fillcolor="#fae8da"] ;
359 -> 497 ;
498 [label="X[3] <= 1.239\nmse = 0.064\nsamples = 91\nvalue = 0.956", fillcolor="#fae7d9"] ;
497 -> 498 ;
499 [label="X[3] <= 0.9\nmse = 0.054\nsamples = 90\nvalue = 0.967", fillcolor="#fae7d9"] ;
498 -> 499 ;
500 [label="X[3] <= 0.721\nmse = 0.25\nsamples = 2\nvalue = 1.5", fillcolor="#f7d9c4"] ;
499 -> 500 ;
501 [label="mse = 0.0\nsamples = 1\nvalue = 1.0", fillcolor="#fae6d7"] ;
500 -> 501 ;
502 [label="mse = 0.0\nsamples = 1\nvalue = 2.0", fillcolor="#f5cdb0"] ;
500 -> 502 ;
503 [label="X[5] <= 2.189\nmse = 0.043\nsamples = 88\nvalue = 0.955", fillcolor="#fae7d9"] ;
499 -> 503 ;
504 [label="mse = 0.0\nsamples = 57\nvalue = 1.0", fillcolor="#fae6d7"] ;
503 -> 504 ;
505 [label="X[5] <= 2.2\nmse = 0.112\nsamples = 31\nvalue = 0.871", fillcolor="#fae9dd"] ;
503 -> 505 ;
506 [label="mse = 0.0\nsamples = 1\nvalue = 0.0", fillcolor="#ffffff"] ;
505 -> 506 ;
507 [label="X[7] <= -117.095\nmse = 0.09\nsamples = 30\nvalue = 0.9", fillcolor="#fae8db"] ;
505 -> 507 ;
508 [label="X[1] <= 24.0\nmse = 0.178\nsamples = 13\nvalue = 0.769", fillcolor="#fbece1"] ;
507 -> 508 ;
509 [label="mse = 0.0\nsamples = 3\nvalue = 0.0", fillcolor="#ffffff"] ;
508 -> 509 ;
510 [label="mse = 0.0\nsamples = 10\nvalue = 1.0", fillcolor="#fae6d7"] ;
508 -> 510 ;
511 [label="mse = 0.0\nsamples = 17\nvalue = 1.0", fillcolor="#fae6d7"] ;
507 -> 511 ;
512 [label="mse = 0.0\nsamples = 1\nvalue = 0.0", fillcolor="#ffffff"] ;
498 -> 512 ;
513 [label="mse = 0.0\nsamples = 3\nvalue = 0.0", fillcolor="#ffffff"] ;
497 -> 513 ;
514 [label="X[7] <= -121.985\nmse = 0.382\nsamples = 130\nvalue = 0.692", fillcolor="#fbeee4"] ;
4 -> 514 ;
515 [label="X[6] <= 39.27\nmse = 0.451\nsamples = 53\nvalue = 0.962", fillcolor="#fae7d9"] ;
514 -> 515 ;
516 [label="X[7] <= -122.485\nmse = 0.369\nsamples = 41\nvalue = 1.146", fillcolor="#f9e2d2"] ;
515 -> 516 ;
517 [label="X[7] <= -122.715\nmse = 0.469\nsamples = 18\nvalue = 1.444", fillcolor="#f7dbc6"] ;
516 -> 517 ;
518 [label="X[0] <= 2.522\nmse = 0.139\nsamples = 6\nvalue = 0.833", fillcolor="#fbeade"] ;
517 -> 518 ;
519 [label="mse = 0.0\nsamples = 5\nvalue = 1.0", fillcolor="#fae6d7"] ;
518 -> 519 ;
520 [label="mse = 0.0\nsamples = 1\nvalue = 0.0", fillcolor="#ffffff"] ;
518 -> 520 ;
521 [label="X[2] <= 4.141\nmse = 0.354\nsamples = 12\nvalue = 1.75", fillcolor="#f6d3ba"] ;
517 -> 521 ;
522 [label="X[7] <= -122.705\nmse = 0.231\nsamples = 11\nvalue = 1.636", fillcolor="#f6d6be"] ;
521 -> 522 ;
523 [label="X[6] <= 38.435\nmse = 0.16\nsamples = 5\nvalue = 1.2", fillcolor="#f9e1cf"] ;
522 -> 523 ;
524 [label="mse = 0.0\nsamples = 4\nvalue = 1.0", fillcolor="#fae6d7"] ;
523 -> 524 ;
525 [label="mse = 0.0\nsamples = 1\nvalue = 2.0", fillcolor="#f5cdb0"] ;
523 -> 525 ;
526 [label="mse = 0.0\nsamples = 6\nvalue = 2.0", fillcolor="#f5cdb0"] ;
522 -> 526 ;
527 [label="mse = 0.0\nsamples = 1\nvalue = 3.0", fillcolor="#efb388"] ;
521 -> 527 ;
528 [label="X[3] <= 0.894\nmse = 0.166\nsamples = 23\nvalue = 0.913", fillcolor="#fae8db"] ;
516 -> 528 ;
529 [label="X[7] <= -122.315\nmse = 0.222\nsamples = 3\nvalue = 0.333", fillcolor="#fdf7f2"] ;
528 -> 529 ;
530 [label="mse = 0.0\nsamples = 2\nvalue = 0.0", fillcolor="#ffffff"] ;
529 -> 530 ;
531 [label="mse = 0.0\nsamples = 1\nvalue = 1.0", fillcolor="#fae6d7"] ;
529 -> 531 ;
532 [label="X[4] <= 71.5\nmse = 0.1\nsamples = 20\nvalue = 1.0", fillcolor="#fae6d7"] ;
528 -> 532 ;
533 [label="mse = 0.0\nsamples = 1\nvalue = 2.0", fillcolor="#f5cdb0"] ;
532 -> 533 ;
534 [label="X[5] <= 1.812\nmse = 0.05\nsamples = 19\nvalue = 0.947", fillcolor="#fae7d9"] ;
532 -> 534 ;
535 [label="X[5] <= 1.667\nmse = 0.222\nsamples = 3\nvalue = 0.667", fillcolor="#fceee5"] ;
534 -> 535 ;
536 [label="mse = 0.0\nsamples = 2\nvalue = 1.0", fillcolor="#fae6d7"] ;
535 -> 536 ;
537 [label="mse = 0.0\nsamples = 1\nvalue = 0.0", fillcolor="#ffffff"] ;
535 -> 537 ;
538 [label="mse = 0.0\nsamples = 16\nvalue = 1.0", fillcolor="#fae6d7"] ;
534 -> 538 ;
539 [label="X[1] <= 12.0\nmse = 0.222\nsamples = 12\nvalue = 0.333", fillcolor="#fdf7f2"] ;
515 -> 539 ;
540 [label="mse = 0.0\nsamples = 2\nvalue = 1.0", fillcolor="#fae6d7"] ;
539 -> 540 ;
541 [label="X[2] <= 2.636\nmse = 0.16\nsamples = 10\nvalue = 0.2", fillcolor="#fefaf7"] ;
539 -> 541 ;
542 [label="mse = 0.0\nsamples = 1\nvalue = 1.0", fillcolor="#fae6d7"] ;
541 -> 542 ;
543 [label="X[2] <= 4.02\nmse = 0.099\nsamples = 9\nvalue = 0.111", fillcolor="#fefcfb"] ;
541 -> 543 ;
544 [label="mse = 0.0\nsamples = 6\nvalue = 0.0", fillcolor="#ffffff"] ;
543 -> 544 ;
545 [label="X[7] <= -123.715\nmse = 0.222\nsamples = 3\nvalue = 0.333", fillcolor="#fdf7f2"] ;
543 -> 545 ;
546 [label="mse = 0.0\nsamples = 1\nvalue = 1.0", fillcolor="#fae6d7"] ;
545 -> 546 ;
547 [label="mse = 0.0\nsamples = 2\nvalue = 0.0", fillcolor="#ffffff"] ;
545 -> 547 ;
548 [label="X[5] <= 1.757\nmse = 0.25\nsamples = 77\nvalue = 0.506", fillcolor="#fcf2eb"] ;
514 -> 548 ;
549 [label="X[2] <= 3.516\nmse = 0.188\nsamples = 24\nvalue = 0.75", fillcolor="#fbece1"] ;
548 -> 549 ;
550 [label="X[1] <= 50.5\nmse = 0.247\nsamples = 9\nvalue = 0.444", fillcolor="#fdf4ed"] ;
549 -> 550 ;
551 [label="X[4] <= 1119.5\nmse = 0.204\nsamples = 7\nvalue = 0.286", fillcolor="#fef8f4"] ;
550 -> 551 ;
552 [label="X[5] <= 1.603\nmse = 0.139\nsamples = 6\nvalue = 0.167", fillcolor="#fefbf8"] ;
551 -> 552 ;
553 [label="mse = 0.0\nsamples = 5\nvalue = 0.0", fillcolor="#ffffff"] ;
552 -> 553 ;
554 [label="mse = 0.0\nsamples = 1\nvalue = 1.0", fillcolor="#fae6d7"] ;
552 -> 554 ;
555 [label="mse = 0.0\nsamples = 1\nvalue = 1.0", fillcolor="#fae6d7"] ;
551 -> 555 ;
556 [label="mse = 0.0\nsamples = 2\nvalue = 1.0", fillcolor="#fae6d7"] ;
550 -> 556 ;
557 [label="X[6] <= 38.565\nmse = 0.062\nsamples = 15\nvalue = 0.933", fillcolor="#fae7da"] ;
549 -> 557 ;
558 [label="X[7] <= -121.43\nmse = 0.25\nsamples = 2\nvalue = 0.5", fillcolor="#fcf2eb"] ;
557 -> 558 ;
559 [label="mse = 0.0\nsamples = 1\nvalue = 0.0", fillcolor="#ffffff"] ;
558 -> 559 ;
560 [label="mse = 0.0\nsamples = 1\nvalue = 1.0", fillcolor="#fae6d7"] ;
558 -> 560 ;
561 [label="mse = 0.0\nsamples = 13\nvalue = 1.0", fillcolor="#fae6d7"] ;
557 -> 561 ;
562 [label="X[0] <= 2.54\nmse = 0.239\nsamples = 53\nvalue = 0.396", fillcolor="#fdf5ef"] ;
548 -> 562 ;
563 [label="X[7] <= -121.335\nmse = 0.23\nsamples = 50\nvalue = 0.36", fillcolor="#fdf6f1"] ;
562 -> 563 ;
564 [label="X[0] <= 1.42\nmse = 0.197\nsamples = 37\nvalue = 0.27", fillcolor="#fef8f4"] ;
563 -> 564 ;
565 [label="mse = 0.0\nsamples = 11\nvalue = 0.0", fillcolor="#ffffff"] ;
564 -> 565 ;
566 [label="X[1] <= 16.5\nmse = 0.237\nsamples = 26\nvalue = 0.385", fillcolor="#fdf5f0"] ;
564 -> 566 ;
567 [label="mse = 0.0\nsamples = 6\nvalue = 0.0", fillcolor="#ffffff"] ;
566 -> 567 ;
568 [label="X[5] <= 2.111\nmse = 0.25\nsamples = 20\nvalue = 0.5", fillcolor="#fcf2eb"] ;
566 -> 568 ;
569 [label="X[1] <= 30.0\nmse = 0.198\nsamples = 11\nvalue = 0.727", fillcolor="#fbede2"] ;
568 -> 569 ;
570 [label="X[3] <= 1.047\nmse = 0.188\nsamples = 4\nvalue = 0.25", fillcolor="#fef9f5"] ;
569 -> 570 ;
571 [label="mse = 0.0\nsamples = 1\nvalue = 1.0", fillcolor="#fae6d7"] ;
570 -> 571 ;
572 [label="mse = 0.0\nsamples = 3\nvalue = 0.0", fillcolor="#ffffff"] ;
570 -> 572 ;
573 [label="mse = 0.0\nsamples = 7\nvalue = 1.0", fillcolor="#fae6d7"] ;
569 -> 573 ;
574 [label="X[7] <= -121.66\nmse = 0.173\nsamples = 9\nvalue = 0.222", fillcolor="#fef9f6"] ;
568 -> 574 ;
575 [label="mse = 0.0\nsamples = 2\nvalue = 1.0", fillcolor="#fae6d7"] ;
574 -> 575 ;
576 [label="mse = 0.0\nsamples = 7\nvalue = 0.0", fillcolor="#ffffff"] ;
574 -> 576 ;
577 [label="X[1] <= 21.5\nmse = 0.237\nsamples = 13\nvalue = 0.615", fillcolor="#fcefe7"] ;
563 -> 577 ;
578 [label="mse = 0.0\nsamples = 5\nvalue = 1.0", fillcolor="#fae6d7"] ;
577 -> 578 ;
579 [label="X[3] <= 1.083\nmse = 0.234\nsamples = 8\nvalue = 0.375", fillcolor="#fdf6f0"] ;
577 -> 579 ;
580 [label="mse = 0.0\nsamples = 4\nvalue = 0.0", fillcolor="#ffffff"] ;
579 -> 580 ;
581 [label="X[2] <= 3.409\nmse = 0.188\nsamples = 4\nvalue = 0.75", fillcolor="#fbece1"] ;
579 -> 581 ;
582 [label="mse = 0.0\nsamples = 1\nvalue = 0.0", fillcolor="#ffffff"] ;
581 -> 582 ;
583 [label="mse = 0.0\nsamples = 3\nvalue = 1.0", fillcolor="#fae6d7"] ;
581 -> 583 ;
584 [label="mse = 0.0\nsamples = 3\nvalue = 1.0", fillcolor="#fae6d7"] ;
562 -> 584 ;
585 [label="X[0] <= 1.82\nmse = 0.542\nsamples = 2022\nvalue = 0.958", fillcolor="#fae7d9"] ;
3 -> 585 ;
586 [label="X[2] <= 3.228\nmse = 0.665\nsamples = 633\nvalue = 0.684", fillcolor="#fbeee4"] ;
585 -> 586 ;
587 [label="X[6] <= 33.995\nmse = 0.971\nsamples = 181\nvalue = 1.249", fillcolor="#f9e0ce"] ;
586 -> 587 ;
588 [label="X[7] <= -117.165\nmse = 0.319\nsamples = 40\nvalue = 0.675", fillcolor="#fbeee4"] ;
587 -> 588 ;
589 [label="X[7] <= -118.225\nmse = 0.276\nsamples = 24\nvalue = 0.875", fillcolor="#fae9dc"] ;
588 -> 589 ;
590 [label="X[5] <= 4.013\nmse = 0.247\nsamples = 9\nvalue = 0.444", fillcolor="#fdf4ed"] ;
589 -> 590 ;
591 [label="mse = 0.0\nsamples = 4\nvalue = 1.0", fillcolor="#fae6d7"] ;
590 -> 591 ;
592 [label="mse = 0.0\nsamples = 5\nvalue = 0.0", fillcolor="#ffffff"] ;
590 -> 592 ;
593 [label="X[0] <= 1.375\nmse = 0.116\nsamples = 15\nvalue = 1.133", fillcolor="#f9e2d2"] ;
589 -> 593 ;
594 [label="X[3] <= 0.968\nmse = 0.222\nsamples = 3\nvalue = 1.667", fillcolor="#f6d5bd"] ;
593 -> 594 ;
595 [label="mse = 0.0\nsamples = 1\nvalue = 1.0", fillcolor="#fae6d7"] ;
594 -> 595 ;
596 [label="mse = 0.0\nsamples = 2\nvalue = 2.0", fillcolor="#f5cdb0"] ;
594 -> 596 ;
597 [label="mse = 0.0\nsamples = 12\nvalue = 1.0", fillcolor="#fae6d7"] ;
593 -> 597 ;
598 [label="X[0] <= 1.643\nmse = 0.234\nsamples = 16\nvalue = 0.375", fillcolor="#fdf6f0"] ;
588 -> 598 ;
599 [label="X[3] <= 1.203\nmse = 0.139\nsamples = 12\nvalue = 0.167", fillcolor="#fefbf8"] ;
598 -> 599 ;
600 [label="X[2] <= 3.079\nmse = 0.083\nsamples = 11\nvalue = 0.091", fillcolor="#fffdfb"] ;
599 -> 600 ;
601 [label="mse = 0.0\nsamples = 8\nvalue = 0.0", fillcolor="#ffffff"] ;
600 -> 601 ;
602 [label="X[0] <= 1.2\nmse = 0.222\nsamples = 3\nvalue = 0.333", fillcolor="#fdf7f2"] ;
600 -> 602 ;
603 [label="mse = 0.0\nsamples = 2\nvalue = 0.0", fillcolor="#ffffff"] ;
602 -> 603 ;
604 [label="mse = 0.0\nsamples = 1\nvalue = 1.0", fillcolor="#fae6d7"] ;
602 -> 604 ;
605 [label="mse = 0.0\nsamples = 1\nvalue = 1.0", fillcolor="#fae6d7"] ;
599 -> 605 ;
606 [label="mse = 0.0\nsamples = 4\nvalue = 1.0", fillcolor="#fae6d7"] ;
598 -> 606 ;
607 [label="X[6] <= 37.91\nmse = 1.036\nsamples = 141\nvalue = 1.411", fillcolor="#f8dbc7"] ;
587 -> 607 ;
608 [label="X[5] <= 4.619\nmse = 0.988\nsamples = 130\nvalue = 1.508", fillcolor="#f7d9c3"] ;
607 -> 608 ;
609 [label="X[3] <= 1.064\nmse = 0.717\nsamples = 118\nvalue = 1.415", fillcolor="#f8dbc7"] ;
608 -> 609 ;
610 [label="X[4] <= 546.5\nmse = 0.454\nsamples = 61\nvalue = 1.148", fillcolor="#f9e2d2"] ;
609 -> 610 ;
611 [label="X[6] <= 34.085\nmse = 0.5\nsamples = 8\nvalue = 0.5", fillcolor="#fcf2eb"] ;
610 -> 611 ;
612 [label="X[2] <= 2.18\nmse = 0.25\nsamples = 2\nvalue = 1.5", fillcolor="#f7d9c4"] ;
611 -> 612 ;
613 [label="mse = 0.0\nsamples = 1\nvalue = 2.0", fillcolor="#f5cdb0"] ;
612 -> 613 ;
614 [label="mse = 0.0\nsamples = 1\nvalue = 1.0", fillcolor="#fae6d7"] ;
612 -> 614 ;
615 [label="X[4] <= 233.0\nmse = 0.139\nsamples = 6\nvalue = 0.167", fillcolor="#fefbf8"] ;
611 -> 615 ;
616 [label="X[5] <= 3.071\nmse = 0.25\nsamples = 2\nvalue = 0.5", fillcolor="#fcf2eb"] ;
615 -> 616 ;
617 [label="mse = 0.0\nsamples = 1\nvalue = 0.0", fillcolor="#ffffff"] ;
616 -> 617 ;
618 [label="mse = 0.0\nsamples = 1\nvalue = 1.0", fillcolor="#fae6d7"] ;
616 -> 618 ;
619 [label="mse = 0.0\nsamples = 4\nvalue = 0.0", fillcolor="#ffffff"] ;
615 -> 619 ;
620 [label="X[6] <= 37.355\nmse = 0.374\nsamples = 53\nvalue = 1.245", fillcolor="#f9e0ce"] ;
610 -> 620 ;
621 [label="X[6] <= 35.465\nmse = 0.3\nsamples = 49\nvalue = 1.163", fillcolor="#f9e2d1"] ;
620 -> 621 ;
622 [label="X[6] <= 34.07\nmse = 0.253\nsamples = 47\nvalue = 1.213", fillcolor="#f9e0cf"] ;
621 -> 622 ;
623 [label="X[2] <= 1.612\nmse = 0.136\nsamples = 35\nvalue = 1.086", fillcolor="#f9e4d4"] ;
622 -> 623 ;
624 [label="mse = 0.0\nsamples = 2\nvalue = 2.0", fillcolor="#f5cdb0"] ;
623 -> 624 ;
625 [label="X[3] <= 1.062\nmse = 0.09\nsamples = 33\nvalue = 1.03", fillcolor="#fae5d6"] ;
623 -> 625 ;
626 [label="X[3] <= 1.06\nmse = 0.059\nsamples = 32\nvalue = 1.062", fillcolor="#f9e4d5"] ;
625 -> 626 ;
627 [label="X[1] <= 43.5\nmse = 0.031\nsamples = 31\nvalue = 1.032", fillcolor="#fae5d6"] ;
626 -> 627 ;
628 [label="mse = 0.0\nsamples = 24\nvalue = 1.0", fillcolor="#fae6d7"] ;
627 -> 628 ;
629 [label="X[1] <= 44.5\nmse = 0.122\nsamples = 7\nvalue = 1.143", fillcolor="#f9e2d2"] ;
627 -> 629 ;
630 [label="X[7] <= -118.25\nmse = 0.222\nsamples = 3\nvalue = 1.333", fillcolor="#f8ddca"] ;
629 -> 630 ;
631 [label="mse = 0.0\nsamples = 1\nvalue = 2.0", fillcolor="#f5cdb0"] ;
630 -> 631 ;
632 [label="mse = 0.0\nsamples = 2\nvalue = 1.0", fillcolor="#fae6d7"] ;
630 -> 632 ;
633 [label="mse = 0.0\nsamples = 4\nvalue = 1.0", fillcolor="#fae6d7"] ;
629 -> 633 ;
634 [label="mse = 0.0\nsamples = 1\nvalue = 2.0", fillcolor="#f5cdb0"] ;
626 -> 634 ;
635 [label="mse = 0.0\nsamples = 1\nvalue = 0.0", fillcolor="#ffffff"] ;
625 -> 635 ;
636 [label="X[2] <= 2.577\nmse = 0.41\nsamples = 12\nvalue = 1.583", fillcolor="#f7d7c0"] ;
622 -> 636 ;
637 [label="X[2] <= 2.186\nmse = 0.222\nsamples = 3\nvalue = 2.333", fillcolor="#f3c4a3"] ;
636 -> 637 ;
638 [label="mse = 0.0\nsamples = 1\nvalue = 3.0", fillcolor="#efb388"] ;
637 -> 638 ;
639 [label="mse = 0.0\nsamples = 2\nvalue = 2.0", fillcolor="#f5cdb0"] ;
637 -> 639 ;
640 [label="X[3] <= 0.983\nmse = 0.222\nsamples = 9\nvalue = 1.333", fillcolor="#f8ddca"] ;
636 -> 640 ;
641 [label="mse = 0.0\nsamples = 4\nvalue = 1.0", fillcolor="#fae6d7"] ;
640 -> 641 ;
642 [label="X[6] <= 34.12\nmse = 0.24\nsamples = 5\nvalue = 1.6", fillcolor="#f7d7c0"] ;
640 -> 642 ;
643 [label="mse = 0.0\nsamples = 2\nvalue = 2.0", fillcolor="#f5cdb0"] ;
642 -> 643 ;
644 [label="X[1] <= 17.0\nmse = 0.222\nsamples = 3\nvalue = 1.333", fillcolor="#f8ddca"] ;
642 -> 644 ;
645 [label="mse = 0.0\nsamples = 1\nvalue = 2.0", fillcolor="#f5cdb0"] ;
644 -> 645 ;
646 [label="mse = 0.0\nsamples = 2\nvalue = 1.0", fillcolor="#fae6d7"] ;
644 -> 646 ;
647 [label="mse = 0.0\nsamples = 2\nvalue = 0.0", fillcolor="#ffffff"] ;
621 -> 647 ;
648 [label="X[0] <= 1.143\nmse = 0.188\nsamples = 4\nvalue = 2.25", fillcolor="#f3c6a6"] ;
620 -> 648 ;
649 [label="mse = 0.0\nsamples = 1\nvalue = 3.0", fillcolor="#efb388"] ;
648 -> 649 ;
650 [label="mse = 0.0\nsamples = 3\nvalue = 2.0", fillcolor="#f5cdb0"] ;
648 -> 650 ;
651 [label="X[0] <= 0.813\nmse = 0.841\nsamples = 57\nvalue = 1.702", fillcolor="#f6d4bc"] ;
609 -> 651 ;
652 [label="mse = 0.0\nsamples = 1\nvalue = 5.0", fillcolor="#e58139"] ;
651 -> 652 ;
653 [label="X[0] <= 1.753\nmse = 0.658\nsamples = 56\nvalue = 1.643", fillcolor="#f6d6be"] ;
651 -> 653 ;
654 [label="X[5] <= 3.338\nmse = 0.615\nsamples = 49\nvalue = 1.551", fillcolor="#f7d8c2"] ;
653 -> 654 ;
655 [label="X[2] <= 2.515\nmse = 0.669\nsamples = 33\nvalue = 1.758", fillcolor="#f6d3b9"] ;
654 -> 655 ;
656 [label="X[1] <= 19.5\nmse = 0.617\nsamples = 9\nvalue = 2.222", fillcolor="#f3c7a7"] ;
655 -> 656 ;
657 [label="mse = 0.0\nsamples = 1\nvalue = 4.0", fillcolor="#ea9a61"] ;
656 -> 657 ;
658 [label="X[0] <= 1.665\nmse = 0.25\nsamples = 8\nvalue = 2.0", fillcolor="#f5cdb0"] ;
656 -> 658 ;
659 [label="X[2] <= 2.124\nmse = 0.122\nsamples = 7\nvalue = 1.857", fillcolor="#f5d0b5"] ;
658 -> 659 ;
660 [label="X[5] <= 3.047\nmse = 0.25\nsamples = 2\nvalue = 1.5", fillcolor="#f7d9c4"] ;
659 -> 660 ;
661 [label="mse = 0.0\nsamples = 1\nvalue = 2.0", fillcolor="#f5cdb0"] ;
660 -> 661 ;
662 [label="mse = 0.0\nsamples = 1\nvalue = 1.0", fillcolor="#fae6d7"] ;
660 -> 662 ;
663 [label="mse = 0.0\nsamples = 5\nvalue = 2.0", fillcolor="#f5cdb0"] ;
659 -> 663 ;
664 [label="mse = 0.0\nsamples = 1\nvalue = 3.0", fillcolor="#efb388"] ;
658 -> 664 ;
665 [label="X[2] <= 2.695\nmse = 0.576\nsamples = 24\nvalue = 1.583", fillcolor="#f7d7c0"] ;
655 -> 665 ;
666 [label="X[7] <= -122.34\nmse = 0.25\nsamples = 8\nvalue = 1.0", fillcolor="#fae6d7"] ;
665 -> 666 ;
667 [label="mse = 0.0\nsamples = 1\nvalue = 0.0", fillcolor="#ffffff"] ;
666 -> 667 ;
668 [label="X[2] <= 2.615\nmse = 0.122\nsamples = 7\nvalue = 1.143", fillcolor="#f9e2d2"] ;
666 -> 668 ;
669 [label="X[4] <= 2504.0\nmse = 0.25\nsamples = 2\nvalue = 1.5", fillcolor="#f7d9c4"] ;
668 -> 669 ;
670 [label="mse = 0.0\nsamples = 1\nvalue = 2.0", fillcolor="#f5cdb0"] ;
669 -> 670 ;
671 [label="mse = 0.0\nsamples = 1\nvalue = 1.0", fillcolor="#fae6d7"] ;
669 -> 671 ;
672 [label="mse = 0.0\nsamples = 5\nvalue = 1.0", fillcolor="#fae6d7"] ;
668 -> 672 ;
673 [label="X[3] <= 1.136\nmse = 0.484\nsamples = 16\nvalue = 1.875", fillcolor="#f5d0b5"] ;
665 -> 673 ;
674 [label="X[6] <= 34.27\nmse = 0.438\nsamples = 8\nvalue = 2.25", fillcolor="#f3c6a6"] ;
673 -> 674 ;
675 [label="X[7] <= -118.235\nmse = 0.188\nsamples = 4\nvalue = 1.75", fillcolor="#f6d3ba"] ;
674 -> 675 ;
676 [label="mse = 0.0\nsamples = 3\nvalue = 2.0", fillcolor="#f5cdb0"] ;
675 -> 676 ;
677 [label="mse = 0.0\nsamples = 1\nvalue = 1.0", fillcolor="#fae6d7"] ;
675 -> 677 ;
678 [label="X[0] <= 1.473\nmse = 0.188\nsamples = 4\nvalue = 2.75", fillcolor="#f1ba92"] ;
674 -> 678 ;
679 [label="mse = 0.0\nsamples = 3\nvalue = 3.0", fillcolor="#efb388"] ;
678 -> 679 ;
680 [label="mse = 0.0\nsamples = 1\nvalue = 2.0", fillcolor="#f5cdb0"] ;
678 -> 680 ;
681 [label="X[5] <= 2.78\nmse = 0.25\nsamples = 8\nvalue = 1.5", fillcolor="#f7d9c4"] ;
673 -> 681 ;
682 [label="mse = 0.0\nsamples = 3\nvalue = 2.0", fillcolor="#f5cdb0"] ;
681 -> 682 ;
683 [label="X[5] <= 3.048\nmse = 0.16\nsamples = 5\nvalue = 1.2", fillcolor="#f9e1cf"] ;
681 -> 683 ;
684 [label="mse = 0.0\nsamples = 3\nvalue = 1.0", fillcolor="#fae6d7"] ;
683 -> 684 ;
685 [label="X[4] <= 1218.0\nmse = 0.25\nsamples = 2\nvalue = 1.5", fillcolor="#f7d9c4"] ;
683 -> 685 ;
686 [label="mse = 0.0\nsamples = 1\nvalue = 1.0", fillcolor="#fae6d7"] ;
685 -> 686 ;
687 [label="mse = 0.0\nsamples = 1\nvalue = 2.0", fillcolor="#f5cdb0"] ;
685 -> 687 ;
688 [label="X[4] <= 3848.5\nmse = 0.234\nsamples = 16\nvalue = 1.125", fillcolor="#f9e3d2"] ;
654 -> 688 ;
689 [label="X[5] <= 3.535\nmse = 0.16\nsamples = 15\nvalue = 1.2", fillcolor="#f9e1cf"] ;
688 -> 689 ;
690 [label="mse = 0.0\nsamples = 2\nvalue = 2.0", fillcolor="#f5cdb0"] ;
689 -> 690 ;
691 [label="X[6] <= 34.08\nmse = 0.071\nsamples = 13\nvalue = 1.077", fillcolor="#f9e4d4"] ;
689 -> 691 ;
692 [label="mse = 0.0\nsamples = 11\nvalue = 1.0", fillcolor="#fae6d7"] ;
691 -> 692 ;
693 [label="X[0] <= 1.421\nmse = 0.25\nsamples = 2\nvalue = 1.5", fillcolor="#f7d9c4"] ;
691 -> 693 ;
694 [label="mse = 0.0\nsamples = 1\nvalue = 2.0", fillcolor="#f5cdb0"] ;
693 -> 694 ;
695 [label="mse = 0.0\nsamples = 1\nvalue = 1.0", fillcolor="#fae6d7"] ;
693 -> 695 ;
696 [label="mse = 0.0\nsamples = 1\nvalue = 0.0", fillcolor="#ffffff"] ;
688 -> 696 ;
697 [label="X[2] <= 3.189\nmse = 0.49\nsamples = 7\nvalue = 2.286", fillcolor="#f3c5a4"] ;
653 -> 697 ;
698 [label="X[6] <= 34.07\nmse = 0.25\nsamples = 6\nvalue = 2.5", fillcolor="#f2c09c"] ;
697 -> 698 ;
699 [label="mse = 0.0\nsamples = 3\nvalue = 3.0", fillcolor="#efb388"] ;
698 -> 699 ;
700 [label="mse = 0.0\nsamples = 3\nvalue = 2.0", fillcolor="#f5cdb0"] ;
698 -> 700 ;
701 [label="mse = 0.0\nsamples = 1\nvalue = 1.0", fillcolor="#fae6d7"] ;
697 -> 701 ;
702 [label="X[1] <= 19.5\nmse = 2.743\nsamples = 12\nvalue = 2.417", fillcolor="#f2c29f"] ;
608 -> 702 ;
703 [label="mse = 0.0\nsamples = 3\nvalue = 1.0", fillcolor="#fae6d7"] ;
702 -> 703 ;
704 [label="X[2] <= 2.44\nmse = 2.765\nsamples = 9\nvalue = 2.889", fillcolor="#f0b68d"] ;
702 -> 704 ;
705 [label="X[5] <= 13.045\nmse = 0.889\nsamples = 3\nvalue = 4.333", fillcolor="#e89253"] ;
704 -> 705 ;
706 [label="mse = 0.0\nsamples = 2\nvalue = 5.0", fillcolor="#e58139"] ;
705 -> 706 ;
707 [label="mse = 0.0\nsamples = 1\nvalue = 3.0", fillcolor="#efb388"] ;
705 -> 707 ;
708 [label="X[5] <= 4.736\nmse = 2.139\nsamples = 6\nvalue = 2.167", fillcolor="#f4c8a9"] ;
704 -> 708 ;
709 [label="mse = 0.0\nsamples = 1\nvalue = 5.0", fillcolor="#e58139"] ;
708 -> 709 ;
710 [label="X[0] <= 1.441\nmse = 0.64\nsamples = 5\nvalue = 1.6", fillcolor="#f7d7c0"] ;
708 -> 710 ;
711 [label="mse = 0.0\nsamples = 3\nvalue = 1.0", fillcolor="#fae6d7"] ;
710 -> 711 ;
712 [label="X[3] <= 1.057\nmse = 0.25\nsamples = 2\nvalue = 2.5", fillcolor="#f2c09c"] ;
710 -> 712 ;
713 [label="mse = 0.0\nsamples = 1\nvalue = 2.0", fillcolor="#f5cdb0"] ;
712 -> 713 ;
714 [label="mse = 0.0\nsamples = 1\nvalue = 3.0", fillcolor="#efb388"] ;
712 -> 714 ;
715 [label="X[5] <= 4.017\nmse = 0.198\nsamples = 11\nvalue = 0.273", fillcolor="#fef8f4"] ;
607 -> 715 ;
716 [label="mse = 0.0\nsamples = 8\nvalue = 0.0", fillcolor="#ffffff"] ;
715 -> 716 ;
717 [label="mse = 0.0\nsamples = 3\nvalue = 1.0", fillcolor="#fae6d7"] ;
715 -> 717 ;
718 [label="X[6] <= 35.31\nmse = 0.363\nsamples = 452\nvalue = 0.458", fillcolor="#fdf3ed"] ;
586 -> 718 ;
719 [label="X[7] <= -117.805\nmse = 0.367\nsamples = 285\nvalue = 0.596", fillcolor="#fcf0e7"] ;
718 -> 719 ;
720 [label="X[6] <= 34.025\nmse = 0.34\nsamples = 189\nvalue = 0.741", fillcolor="#fbece2"] ;
719 -> 720 ;
721 [label="X[6] <= 33.92\nmse = 0.271\nsamples = 145\nvalue = 0.641", fillcolor="#fcefe6"] ;
720 -> 721 ;
722 [label="X[7] <= -118.275\nmse = 0.076\nsamples = 24\nvalue = 1.083", fillcolor="#f9e4d4"] ;
721 -> 722 ;
723 [label="mse = 0.0\nsamples = 2\nvalue = 2.0", fillcolor="#f5cdb0"] ;
722 -> 723 ;
724 [label="mse = 0.0\nsamples = 22\nvalue = 1.0", fillcolor="#fae6d7"] ;
722 -> 724 ;
725 [label="X[6] <= 33.955\nmse = 0.264\nsamples = 121\nvalue = 0.554", fillcolor="#fcf1e9"] ;
721 -> 725 ;
726 [label="X[4] <= 1685.0\nmse = 0.188\nsamples = 32\nvalue = 0.25", fillcolor="#fef9f5"] ;
725 -> 726 ;
727 [label="X[1] <= 27.5\nmse = 0.076\nsamples = 24\nvalue = 0.083", fillcolor="#fffdfc"] ;
726 -> 727 ;
728 [label="X[0] <= 0.933\nmse = 0.222\nsamples = 3\nvalue = 0.667", fillcolor="#fceee5"] ;
727 -> 728 ;
729 [label="mse = 0.0\nsamples = 1\nvalue = 0.0", fillcolor="#ffffff"] ;
728 -> 729 ;
730 [label="mse = 0.0\nsamples = 2\nvalue = 1.0", fillcolor="#fae6d7"] ;
728 -> 730 ;
731 [label="mse = 0.0\nsamples = 21\nvalue = 0.0", fillcolor="#ffffff"] ;
727 -> 731 ;
732 [label="X[5] <= 3.769\nmse = 0.188\nsamples = 8\nvalue = 0.75", fillcolor="#fbece1"] ;
726 -> 732 ;
733 [label="mse = 0.0\nsamples = 5\nvalue = 1.0", fillcolor="#fae6d7"] ;
732 -> 733 ;
734 [label="X[6] <= 33.935\nmse = 0.222\nsamples = 3\nvalue = 0.333", fillcolor="#fdf7f2"] ;
732 -> 734 ;
735 [label="mse = 0.0\nsamples = 1\nvalue = 1.0", fillcolor="#fae6d7"] ;
734 -> 735 ;
736 [label="mse = 0.0\nsamples = 2\nvalue = 0.0", fillcolor="#ffffff"] ;
734 -> 736 ;
737 [label="X[7] <= -118.285\nmse = 0.246\nsamples = 89\nvalue = 0.663", fillcolor="#fceee5"] ;
725 -> 737 ;
738 [label="X[7] <= -118.38\nmse = 0.095\nsamples = 21\nvalue = 1.0", fillcolor="#fae6d7"] ;
737 -> 738 ;
739 [label="mse = 0.0\nsamples = 1\nvalue = 2.0", fillcolor="#f5cdb0"] ;
738 -> 739 ;
740 [label="X[5] <= 2.553\nmse = 0.047\nsamples = 20\nvalue = 0.95", fillcolor="#fae7d9"] ;
738 -> 740 ;
741 [label="mse = 0.0\nsamples = 1\nvalue = 0.0", fillcolor="#ffffff"] ;
740 -> 741 ;
742 [label="mse = 0.0\nsamples = 19\nvalue = 1.0", fillcolor="#fae6d7"] ;
740 -> 742 ;
743 [label="X[0] <= 1.321\nmse = 0.247\nsamples = 68\nvalue = 0.559", fillcolor="#fcf1e9"] ;
737 -> 743 ;
744 [label="X[3] <= 1.149\nmse = 0.116\nsamples = 15\nvalue = 0.133", fillcolor="#fefcfa"] ;
743 -> 744 ;
745 [label="X[6] <= 33.975\nmse = 0.066\nsamples = 14\nvalue = 0.071", fillcolor="#fffdfc"] ;
744 -> 745 ;
746 [label="X[5] <= 4.001\nmse = 0.188\nsamples = 4\nvalue = 0.25", fillcolor="#fef9f5"] ;
745 -> 746 ;
747 [label="mse = 0.0\nsamples = 3\nvalue = 0.0", fillcolor="#ffffff"] ;
746 -> 747 ;
748 [label="mse = 0.0\nsamples = 1\nvalue = 1.0", fillcolor="#fae6d7"] ;
746 -> 748 ;
749 [label="mse = 0.0\nsamples = 10\nvalue = 0.0", fillcolor="#ffffff"] ;
745 -> 749 ;
750 [label="mse = 0.0\nsamples = 1\nvalue = 1.0", fillcolor="#fae6d7"] ;
744 -> 750 ;
751 [label="X[7] <= -118.255\nmse = 0.218\nsamples = 53\nvalue = 0.679", fillcolor="#fbeee4"] ;
743 -> 751 ;
752 [label="X[6] <= 33.995\nmse = 0.249\nsamples = 28\nvalue = 0.464", fillcolor="#fdf3ed"] ;
751 -> 752 ;
753 [label="X[1] <= 36.5\nmse = 0.21\nsamples = 20\nvalue = 0.3", fillcolor="#fdf7f3"] ;
752 -> 753 ;
754 [label="X[4] <= 2038.0\nmse = 0.247\nsamples = 9\nvalue = 0.556", fillcolor="#fcf1e9"] ;
753 -> 754 ;
755 [label="X[5] <= 4.168\nmse = 0.204\nsamples = 7\nvalue = 0.714", fillcolor="#fbede3"] ;
754 -> 755 ;
756 [label="mse = 0.0\nsamples = 5\nvalue = 1.0", fillcolor="#fae6d7"] ;
755 -> 756 ;
757 [label="mse = 0.0\nsamples = 2\nvalue = 0.0", fillcolor="#ffffff"] ;
755 -> 757 ;
758 [label="mse = 0.0\nsamples = 2\nvalue = 0.0", fillcolor="#ffffff"] ;
754 -> 758 ;
759 [label="X[4] <= 816.0\nmse = 0.083\nsamples = 11\nvalue = 0.091", fillcolor="#fffdfb"] ;
753 -> 759 ;
760 [label="mse = 0.0\nsamples = 1\nvalue = 1.0", fillcolor="#fae6d7"] ;
759 -> 760 ;
761 [label="mse = 0.0\nsamples = 10\nvalue = 0.0", fillcolor="#ffffff"] ;
759 -> 761 ;
762 [label="X[0] <= 1.686\nmse = 0.109\nsamples = 8\nvalue = 0.875", fillcolor="#fae9dc"] ;
752 -> 762 ;
763 [label="mse = 0.0\nsamples = 7\nvalue = 1.0", fillcolor="#fae6d7"] ;
762 -> 763 ;
764 [label="mse = 0.0\nsamples = 1\nvalue = 0.0", fillcolor="#ffffff"] ;
762 -> 764 ;
765 [label="X[4] <= 1784.0\nmse = 0.074\nsamples = 25\nvalue = 0.92", fillcolor="#fae8db"] ;
751 -> 765 ;
766 [label="mse = 0.0\nsamples = 18\nvalue = 1.0", fillcolor="#fae6d7"] ;
765 -> 766 ;
767 [label="X[0] <= 1.705\nmse = 0.204\nsamples = 7\nvalue = 0.714", fillcolor="#fbede3"] ;
765 -> 767 ;
768 [label="X[3] <= 1.054\nmse = 0.222\nsamples = 3\nvalue = 0.333", fillcolor="#fdf7f2"] ;
767 -> 768 ;
769 [label="mse = 0.0\nsamples = 1\nvalue = 1.0", fillcolor="#fae6d7"] ;
768 -> 769 ;
770 [label="mse = 0.0\nsamples = 2\nvalue = 0.0", fillcolor="#ffffff"] ;
768 -> 770 ;
771 [label="mse = 0.0\nsamples = 4\nvalue = 1.0", fillcolor="#fae6d7"] ;
767 -> 771 ;
772 [label="X[3] <= 1.14\nmse = 0.427\nsamples = 44\nvalue = 1.068", fillcolor="#f9e4d5"] ;
720 -> 772 ;
773 [label="X[0] <= 1.771\nmse = 0.26\nsamples = 38\nvalue = 0.947", fillcolor="#fae7d9"] ;
772 -> 773 ;
774 [label="X[0] <= 1.19\nmse = 0.222\nsamples = 36\nvalue = 1.0", fillcolor="#fae6d7"] ;
773 -> 774 ;
775 [label="X[3] <= 1.063\nmse = 0.222\nsamples = 3\nvalue = 0.333", fillcolor="#fdf7f2"] ;
774 -> 775 ;
776 [label="mse = 0.0\nsamples = 1\nvalue = 1.0", fillcolor="#fae6d7"] ;
775 -> 776 ;
777 [label="mse = 0.0\nsamples = 2\nvalue = 0.0", fillcolor="#ffffff"] ;
775 -> 777 ;
778 [label="X[7] <= -119.355\nmse = 0.178\nsamples = 33\nvalue = 1.061", fillcolor="#f9e4d5"] ;
774 -> 778 ;
779 [label="X[0] <= 1.578\nmse = 0.64\nsamples = 5\nvalue = 1.6", fillcolor="#f7d7c0"] ;
778 -> 779 ;
780 [label="X[4] <= 1201.0\nmse = 0.25\nsamples = 2\nvalue = 2.5", fillcolor="#f2c09c"] ;
779 -> 780 ;
781 [label="mse = 0.0\nsamples = 1\nvalue = 3.0", fillcolor="#efb388"] ;
780 -> 781 ;
782 [label="mse = 0.0\nsamples = 1\nvalue = 2.0", fillcolor="#f5cdb0"] ;
780 -> 782 ;
783 [label="mse = 0.0\nsamples = 3\nvalue = 1.0", fillcolor="#fae6d7"] ;
779 -> 783 ;
784 [label="X[7] <= -118.645\nmse = 0.034\nsamples = 28\nvalue = 0.964", fillcolor="#fae7d9"] ;
778 -> 784 ;
785 [label="mse = 0.0\nsamples = 1\nvalue = 0.0", fillcolor="#ffffff"] ;
784 -> 785 ;
786 [label="mse = 0.0\nsamples = 27\nvalue = 1.0", fillcolor="#fae6d7"] ;
784 -> 786 ;
787 [label="mse = 0.0\nsamples = 2\nvalue = 0.0", fillcolor="#ffffff"] ;
773 -> 787 ;
788 [label="X[4] <= 2221.0\nmse = 0.806\nsamples = 6\nvalue = 1.833", fillcolor="#f5d1b6"] ;
772 -> 788 ;
789 [label="mse = 0.0\nsamples = 3\nvalue = 1.0", fillcolor="#fae6d7"] ;
788 -> 789 ;
790 [label="X[0] <= 1.494\nmse = 0.222\nsamples = 3\nvalue = 2.667", fillcolor="#f1bc95"] ;
788 -> 790 ;
791 [label="mse = 0.0\nsamples = 2\nvalue = 3.0", fillcolor="#efb388"] ;
790 -> 791 ;
792 [label="mse = 0.0\nsamples = 1\nvalue = 2.0", fillcolor="#f5cdb0"] ;
790 -> 792 ;
793 [label="X[1] <= 6.0\nmse = 0.298\nsamples = 96\nvalue = 0.312", fillcolor="#fdf7f3"] ;
719 -> 793 ;
794 [label="X[2] <= 3.535\nmse = 1.0\nsamples = 2\nvalue = 2.0", fillcolor="#f5cdb0"] ;
793 -> 794 ;
795 [label="mse = 0.0\nsamples = 1\nvalue = 3.0", fillcolor="#efb388"] ;
794 -> 795 ;
796 [label="mse = 0.0\nsamples = 1\nvalue = 1.0", fillcolor="#fae6d7"] ;
794 -> 796 ;
797 [label="X[1] <= 24.5\nmse = 0.221\nsamples = 94\nvalue = 0.277", fillcolor="#fef8f4"] ;
793 -> 797 ;
798 [label="X[5] <= 5.696\nmse = 0.291\nsamples = 41\nvalue = 0.415", fillcolor="#fdf5ef"] ;
797 -> 798 ;
799 [label="X[5] <= 2.933\nmse = 0.234\nsamples = 40\nvalue = 0.375", fillcolor="#fdf6f0"] ;
798 -> 799 ;
800 [label="X[3] <= 1.048\nmse = 0.21\nsamples = 10\nvalue = 0.7", fillcolor="#fbede3"] ;
799 -> 800 ;
801 [label="X[0] <= 1.334\nmse = 0.188\nsamples = 4\nvalue = 0.25", fillcolor="#fef9f5"] ;
800 -> 801 ;
802 [label="mse = 0.0\nsamples = 1\nvalue = 1.0", fillcolor="#fae6d7"] ;
801 -> 802 ;
803 [label="mse = 0.0\nsamples = 3\nvalue = 0.0", fillcolor="#ffffff"] ;
801 -> 803 ;
804 [label="mse = 0.0\nsamples = 6\nvalue = 1.0", fillcolor="#fae6d7"] ;
800 -> 804 ;
805 [label="X[0] <= 1.763\nmse = 0.196\nsamples = 30\nvalue = 0.267", fillcolor="#fef8f4"] ;
799 -> 805 ;
806 [label="X[4] <= 398.5\nmse = 0.168\nsamples = 28\nvalue = 0.214", fillcolor="#fefaf7"] ;
805 -> 806 ;
807 [label="mse = 0.0\nsamples = 1\nvalue = 1.0", fillcolor="#fae6d7"] ;
806 -> 807 ;
808 [label="X[3] <= 1.187\nmse = 0.151\nsamples = 27\nvalue = 0.185", fillcolor="#fefaf8"] ;
806 -> 808 ;
809 [label="X[7] <= -117.06\nmse = 0.13\nsamples = 26\nvalue = 0.154", fillcolor="#fefbf9"] ;
808 -> 809 ;
810 [label="X[1] <= 15.5\nmse = 0.204\nsamples = 14\nvalue = 0.286", fillcolor="#fef8f4"] ;
809 -> 810 ;
811 [label="mse = 0.0\nsamples = 5\nvalue = 0.0", fillcolor="#ffffff"] ;
810 -> 811 ;
812 [label="X[3] <= 1.091\nmse = 0.247\nsamples = 9\nvalue = 0.444", fillcolor="#fdf4ed"] ;
810 -> 812 ;
813 [label="X[5] <= 3.128\nmse = 0.222\nsamples = 6\nvalue = 0.667", fillcolor="#fceee5"] ;
812 -> 813 ;
814 [label="mse = 0.0\nsamples = 3\nvalue = 1.0", fillcolor="#fae6d7"] ;
813 -> 814 ;
815 [label="X[4] <= 2721.0\nmse = 0.222\nsamples = 3\nvalue = 0.333", fillcolor="#fdf7f2"] ;
813 -> 815 ;
816 [label="mse = 0.0\nsamples = 2\nvalue = 0.0", fillcolor="#ffffff"] ;
815 -> 816 ;
817 [label="mse = 0.0\nsamples = 1\nvalue = 1.0", fillcolor="#fae6d7"] ;
815 -> 817 ;
818 [label="mse = 0.0\nsamples = 3\nvalue = 0.0", fillcolor="#ffffff"] ;
812 -> 818 ;
819 [label="mse = 0.0\nsamples = 12\nvalue = 0.0", fillcolor="#ffffff"] ;
809 -> 819 ;
820 [label="mse = 0.0\nsamples = 1\nvalue = 1.0", fillcolor="#fae6d7"] ;
808 -> 820 ;
821 [label="mse = 0.0\nsamples = 2\nvalue = 1.0", fillcolor="#fae6d7"] ;
805 -> 821 ;
822 [label="mse = 0.0\nsamples = 1\nvalue = 2.0", fillcolor="#f5cdb0"] ;
798 -> 822 ;
823 [label="X[0] <= 1.806\nmse = 0.141\nsamples = 53\nvalue = 0.17", fillcolor="#fefbf8"] ;
797 -> 823 ;
824 [label="X[1] <= 49.0\nmse = 0.118\nsamples = 51\nvalue = 0.137", fillcolor="#fefcfa"] ;
823 -> 824 ;
825 [label="X[6] <= 32.665\nmse = 0.065\nsamples = 43\nvalue = 0.07", fillcolor="#fffdfc"] ;
824 -> 825 ;
826 [label="mse = 0.0\nsamples = 1\nvalue = 1.0", fillcolor="#fae6d7"] ;
825 -> 826 ;
827 [label="X[4] <= 678.5\nmse = 0.045\nsamples = 42\nvalue = 0.048", fillcolor="#fffefd"] ;
825 -> 827 ;
828 [label="X[4] <= 585.0\nmse = 0.24\nsamples = 5\nvalue = 0.4", fillcolor="#fdf5ef"] ;
827 -> 828 ;
829 [label="mse = 0.0\nsamples = 3\nvalue = 0.0", fillcolor="#ffffff"] ;
828 -> 829 ;
830 [label="mse = 0.0\nsamples = 2\nvalue = 1.0", fillcolor="#fae6d7"] ;
828 -> 830 ;
831 [label="mse = 0.0\nsamples = 37\nvalue = 0.0", fillcolor="#ffffff"] ;
827 -> 831 ;
832 [label="X[5] <= 3.016\nmse = 0.25\nsamples = 8\nvalue = 0.5", fillcolor="#fcf2eb"] ;
824 -> 832 ;
833 [label="mse = 0.0\nsamples = 2\nvalue = 1.0", fillcolor="#fae6d7"] ;
832 -> 833 ;
834 [label="X[3] <= 1.029\nmse = 0.222\nsamples = 6\nvalue = 0.333", fillcolor="#fdf7f2"] ;
832 -> 834 ;
835 [label="mse = 0.0\nsamples = 3\nvalue = 0.0", fillcolor="#ffffff"] ;
834 -> 835 ;
836 [label="X[6] <= 32.685\nmse = 0.222\nsamples = 3\nvalue = 0.667", fillcolor="#fceee5"] ;
834 -> 836 ;
837 [label="mse = 0.0\nsamples = 1\nvalue = 0.0", fillcolor="#ffffff"] ;
836 -> 837 ;
838 [label="mse = 0.0\nsamples = 2\nvalue = 1.0", fillcolor="#fae6d7"] ;
836 -> 838 ;
839 [label="mse = 0.0\nsamples = 2\nvalue = 1.0", fillcolor="#fae6d7"] ;
823 -> 839 ;
840 [label="X[7] <= -121.58\nmse = 0.268\nsamples = 167\nvalue = 0.222", fillcolor="#fef9f6"] ;
718 -> 840 ;
841 [label="X[4] <= 2316.0\nmse = 0.615\nsamples = 41\nvalue = 0.659", fillcolor="#fceee5"] ;
840 -> 841 ;
842 [label="X[2] <= 4.174\nmse = 0.351\nsamples = 39\nvalue = 0.538", fillcolor="#fcf1ea"] ;
841 -> 842 ;
843 [label="X[6] <= 37.905\nmse = 0.247\nsamples = 36\nvalue = 0.444", fillcolor="#fdf4ed"] ;
842 -> 843 ;
844 [label="X[0] <= 1.739\nmse = 0.201\nsamples = 18\nvalue = 0.722", fillcolor="#fbede2"] ;
843 -> 844 ;
845 [label="X[4] <= 1866.0\nmse = 0.116\nsamples = 15\nvalue = 0.867", fillcolor="#fae9dd"] ;
844 -> 845 ;
846 [label="X[6] <= 37.765\nmse = 0.066\nsamples = 14\nvalue = 0.929", fillcolor="#fae8da"] ;
845 -> 846 ;
847 [label="X[4] <= 523.5\nmse = 0.222\nsamples = 3\nvalue = 0.667", fillcolor="#fceee5"] ;
846 -> 847 ;
848 [label="mse = 0.0\nsamples = 2\nvalue = 1.0", fillcolor="#fae6d7"] ;
847 -> 848 ;
849 [label="mse = 0.0\nsamples = 1\nvalue = 0.0", fillcolor="#ffffff"] ;
847 -> 849 ;
850 [label="mse = 0.0\nsamples = 11\nvalue = 1.0", fillcolor="#fae6d7"] ;
846 -> 850 ;
851 [label="mse = 0.0\nsamples = 1\nvalue = 0.0", fillcolor="#ffffff"] ;
845 -> 851 ;
852 [label="mse = 0.0\nsamples = 3\nvalue = 0.0", fillcolor="#ffffff"] ;
844 -> 852 ;
853 [label="X[1] <= 11.0\nmse = 0.139\nsamples = 18\nvalue = 0.167", fillcolor="#fefbf8"] ;
843 -> 853 ;
854 [label="mse = 0.0\nsamples = 1\nvalue = 1.0", fillcolor="#fae6d7"] ;
853 -> 854 ;
855 [label="X[5] <= 2.539\nmse = 0.104\nsamples = 17\nvalue = 0.118", fillcolor="#fefcfa"] ;
853 -> 855 ;
856 [label="mse = 0.0\nsamples = 1\nvalue = 1.0", fillcolor="#fae6d7"] ;
855 -> 856 ;
857 [label="X[4] <= 1278.5\nmse = 0.059\nsamples = 16\nvalue = 0.062", fillcolor="#fffdfd"] ;
855 -> 857 ;
858 [label="mse = 0.0\nsamples = 12\nvalue = 0.0", fillcolor="#ffffff"] ;
857 -> 858 ;
859 [label="X[4] <= 1499.5\nmse = 0.188\nsamples = 4\nvalue = 0.25", fillcolor="#fef9f5"] ;
857 -> 859 ;
860 [label="mse = 0.0\nsamples = 1\nvalue = 1.0", fillcolor="#fae6d7"] ;
859 -> 860 ;
861 [label="mse = 0.0\nsamples = 3\nvalue = 0.0", fillcolor="#ffffff"] ;
859 -> 861 ;
862 [label="X[3] <= 1.117\nmse = 0.222\nsamples = 3\nvalue = 1.667", fillcolor="#f6d5bd"] ;
842 -> 862 ;
863 [label="mse = 0.0\nsamples = 2\nvalue = 2.0", fillcolor="#f5cdb0"] ;
862 -> 863 ;
864 [label="mse = 0.0\nsamples = 1\nvalue = 1.0", fillcolor="#fae6d7"] ;
862 -> 864 ;
865 [label="mse = 0.0\nsamples = 2\nvalue = 3.0", fillcolor="#efb388"] ;
841 -> 865 ;
866 [label="X[7] <= -121.03\nmse = 0.073\nsamples = 126\nvalue = 0.079", fillcolor="#fffdfc"] ;
840 -> 866 ;
867 [label="X[1] <= 23.5\nmse = 0.195\nsamples = 34\nvalue = 0.265", fillcolor="#fef8f5"] ;
866 -> 867 ;
868 [label="X[7] <= -121.47\nmse = 0.234\nsamples = 8\nvalue = 0.625", fillcolor="#fcefe6"] ;
867 -> 868 ;
869 [label="mse = 0.0\nsamples = 3\nvalue = 0.0", fillcolor="#ffffff"] ;
868 -> 869 ;
870 [label="mse = 0.0\nsamples = 5\nvalue = 1.0", fillcolor="#fae6d7"] ;
868 -> 870 ;
871 [label="X[5] <= 4.296\nmse = 0.13\nsamples = 26\nvalue = 0.154", fillcolor="#fefbf9"] ;
867 -> 871 ;
872 [label="X[3] <= 1.162\nmse = 0.048\nsamples = 20\nvalue = 0.05", fillcolor="#fffefd"] ;
871 -> 872 ;
873 [label="mse = 0.0\nsamples = 17\nvalue = 0.0", fillcolor="#ffffff"] ;
872 -> 873 ;
874 [label="X[4] <= 1081.5\nmse = 0.222\nsamples = 3\nvalue = 0.333", fillcolor="#fdf7f2"] ;
872 -> 874 ;
875 [label="mse = 0.0\nsamples = 2\nvalue = 0.0", fillcolor="#ffffff"] ;
874 -> 875 ;
876 [label="mse = 0.0\nsamples = 1\nvalue = 1.0", fillcolor="#fae6d7"] ;
874 -> 876 ;
877 [label="X[2] <= 3.717\nmse = 0.25\nsamples = 6\nvalue = 0.5", fillcolor="#fcf2eb"] ;
871 -> 877 ;
878 [label="mse = 0.0\nsamples = 2\nvalue = 1.0", fillcolor="#fae6d7"] ;
877 -> 878 ;
879 [label="X[6] <= 37.225\nmse = 0.188\nsamples = 4\nvalue = 0.25", fillcolor="#fef9f5"] ;
877 -> 879 ;
880 [label="mse = 0.0\nsamples = 1\nvalue = 1.0", fillcolor="#fae6d7"] ;
879 -> 880 ;
881 [label="mse = 0.0\nsamples = 3\nvalue = 0.0", fillcolor="#ffffff"] ;
879 -> 881 ;
882 [label="X[0] <= 0.762\nmse = 0.011\nsamples = 92\nvalue = 0.011", fillcolor="#ffffff"] ;
866 -> 882 ;
883 [label="mse = 0.0\nsamples = 1\nvalue = 1.0", fillcolor="#fae6d7"] ;
882 -> 883 ;
884 [label="mse = 0.0\nsamples = 91\nvalue = 0.0", fillcolor="#ffffff"] ;
882 -> 884 ;
885 [label="X[5] <= 3.461\nmse = 0.437\nsamples = 1389\nvalue = 1.084", fillcolor="#f9e4d4"] ;
585 -> 885 ;
886 [label="X[2] <= 3.365\nmse = 0.62\nsamples = 598\nvalue = 1.281", fillcolor="#f8dfcc"] ;
885 -> 886 ;
887 [label="X[7] <= -117.09\nmse = 0.899\nsamples = 132\nvalue = 1.682", fillcolor="#f6d5bc"] ;
886 -> 887 ;
888 [label="X[7] <= -118.225\nmse = 0.821\nsamples = 131\nvalue = 1.656", fillcolor="#f6d5bd"] ;
887 -> 888 ;
889 [label="X[3] <= 0.932\nmse = 0.85\nsamples = 113\nvalue = 1.77", fillcolor="#f6d2b9"] ;
888 -> 889 ;
890 [label="X[6] <= 37.555\nmse = 0.36\nsamples = 10\nvalue = 0.8", fillcolor="#fbebdf"] ;
889 -> 890 ;
891 [label="X[4] <= 1011.0\nmse = 0.139\nsamples = 6\nvalue = 1.167", fillcolor="#f9e2d1"] ;
890 -> 891 ;
892 [label="mse = 0.0\nsamples = 5\nvalue = 1.0", fillcolor="#fae6d7"] ;
891 -> 892 ;
893 [label="mse = 0.0\nsamples = 1\nvalue = 2.0", fillcolor="#f5cdb0"] ;
891 -> 893 ;
894 [label="X[1] <= 43.5\nmse = 0.188\nsamples = 4\nvalue = 0.25", fillcolor="#fef9f5"] ;
890 -> 894 ;
895 [label="mse = 0.0\nsamples = 3\nvalue = 0.0", fillcolor="#ffffff"] ;
894 -> 895 ;
896 [label="mse = 0.0\nsamples = 1\nvalue = 1.0", fillcolor="#fae6d7"] ;
894 -> 896 ;
897 [label="X[4] <= 686.5\nmse = 0.797\nsamples = 103\nvalue = 1.864", fillcolor="#f5d0b5"] ;
889 -> 897 ;
898 [label="X[7] <= -122.405\nmse = 1.16\nsamples = 10\nvalue = 2.8", fillcolor="#f0b890"] ;
897 -> 898 ;
899 [label="X[1] <= 36.0\nmse = 0.25\nsamples = 2\nvalue = 4.5", fillcolor="#e88e4d"] ;
898 -> 899 ;
900 [label="mse = 0.0\nsamples = 1\nvalue = 4.0", fillcolor="#ea9a61"] ;
899 -> 900 ;
901 [label="mse = 0.0\nsamples = 1\nvalue = 5.0", fillcolor="#e58139"] ;
899 -> 901 ;
902 [label="X[0] <= 2.586\nmse = 0.484\nsamples = 8\nvalue = 2.375", fillcolor="#f3c3a1"] ;
898 -> 902 ;
903 [label="X[5] <= 3.214\nmse = 0.16\nsamples = 5\nvalue = 2.8", fillcolor="#f0b890"] ;
902 -> 903 ;
904 [label="mse = 0.0\nsamples = 4\nvalue = 3.0", fillcolor="#efb388"] ;
903 -> 904 ;
905 [label="mse = 0.0\nsamples = 1\nvalue = 2.0", fillcolor="#f5cdb0"] ;
903 -> 905 ;
906 [label="X[2] <= 3.198\nmse = 0.222\nsamples = 3\nvalue = 1.667", fillcolor="#f6d5bd"] ;
902 -> 906 ;
907 [label="mse = 0.0\nsamples = 2\nvalue = 2.0", fillcolor="#f5cdb0"] ;
906 -> 907 ;
908 [label="mse = 0.0\nsamples = 1\nvalue = 1.0", fillcolor="#fae6d7"] ;
906 -> 908 ;
909 [label="X[7] <= -118.445\nmse = 0.654\nsamples = 93\nvalue = 1.763", fillcolor="#f6d3b9"] ;
897 -> 909 ;
910 [label="X[1] <= 23.0\nmse = 0.49\nsamples = 21\nvalue = 1.286", fillcolor="#f8dfcc"] ;
909 -> 910 ;
911 [label="X[1] <= 21.5\nmse = 0.122\nsamples = 7\nvalue = 0.857", fillcolor="#fbe9dd"] ;
910 -> 911 ;
912 [label="mse = 0.0\nsamples = 6\nvalue = 1.0", fillcolor="#fae6d7"] ;
911 -> 912 ;
913 [label="mse = 0.0\nsamples = 1\nvalue = 0.0", fillcolor="#ffffff"] ;
911 -> 913 ;
914 [label="X[0] <= 1.879\nmse = 0.536\nsamples = 14\nvalue = 1.5", fillcolor="#f7d9c4"] ;
910 -> 914 ;
915 [label="mse = 0.0\nsamples = 1\nvalue = 0.0", fillcolor="#ffffff"] ;
914 -> 915 ;
916 [label="X[0] <= 1.91\nmse = 0.391\nsamples = 13\nvalue = 1.615", fillcolor="#f7d6bf"] ;
914 -> 916 ;
917 [label="mse = 0.0\nsamples = 1\nvalue = 3.0", fillcolor="#efb388"] ;
916 -> 917 ;
918 [label="X[5] <= 2.862\nmse = 0.25\nsamples = 12\nvalue = 1.5", fillcolor="#f7d9c4"] ;
916 -> 918 ;
919 [label="X[5] <= 2.665\nmse = 0.16\nsamples = 5\nvalue = 1.8", fillcolor="#f6d2b8"] ;
918 -> 919 ;
920 [label="mse = 0.0\nsamples = 1\nvalue = 1.0", fillcolor="#fae6d7"] ;
919 -> 920 ;
921 [label="mse = 0.0\nsamples = 4\nvalue = 2.0", fillcolor="#f5cdb0"] ;
919 -> 921 ;
922 [label="X[3] <= 1.036\nmse = 0.204\nsamples = 7\nvalue = 1.286", fillcolor="#f8dfcc"] ;
918 -> 922 ;
923 [label="X[5] <= 3.346\nmse = 0.222\nsamples = 3\nvalue = 1.667", fillcolor="#f6d5bd"] ;
922 -> 923 ;
924 [label="mse = 0.0\nsamples = 2\nvalue = 2.0", fillcolor="#f5cdb0"] ;
923 -> 924 ;
925 [label="mse = 0.0\nsamples = 1\nvalue = 1.0", fillcolor="#fae6d7"] ;
923 -> 925 ;
926 [label="mse = 0.0\nsamples = 4\nvalue = 1.0", fillcolor="#fae6d7"] ;
922 -> 926 ;
927 [label="X[6] <= 33.995\nmse = 0.616\nsamples = 72\nvalue = 1.903", fillcolor="#f5cfb4"] ;
909 -> 927 ;
928 [label="mse = 0.0\nsamples = 6\nvalue = 1.0", fillcolor="#fae6d7"] ;
927 -> 928 ;
929 [label="X[6] <= 34.065\nmse = 0.591\nsamples = 66\nvalue = 1.985", fillcolor="#f5cdb0"] ;
927 -> 929 ;
930 [label="X[2] <= 2.947\nmse = 1.246\nsamples = 16\nvalue = 2.562", fillcolor="#f2be9a"] ;
929 -> 930 ;
931 [label="X[5] <= 3.168\nmse = 0.592\nsamples = 13\nvalue = 2.154", fillcolor="#f4c9aa"] ;
930 -> 931 ;
932 [label="X[6] <= 34.055\nmse = 0.16\nsamples = 5\nvalue = 2.8", fillcolor="#f0b890"] ;
931 -> 932 ;
933 [label="mse = 0.0\nsamples = 1\nvalue = 2.0", fillcolor="#f5cdb0"] ;
932 -> 933 ;
934 [label="mse = 0.0\nsamples = 4\nvalue = 3.0", fillcolor="#efb388"] ;
932 -> 934 ;
935 [label="X[7] <= -118.295\nmse = 0.438\nsamples = 8\nvalue = 1.75", fillcolor="#f6d3ba"] ;
931 -> 935 ;
936 [label="mse = 0.0\nsamples = 3\nvalue = 1.0", fillcolor="#fae6d7"] ;
935 -> 936 ;
937 [label="X[1] <= 14.5\nmse = 0.16\nsamples = 5\nvalue = 2.2", fillcolor="#f4c8a8"] ;
935 -> 937 ;
938 [label="mse = 0.0\nsamples = 1\nvalue = 3.0", fillcolor="#efb388"] ;
937 -> 938 ;
939 [label="mse = 0.0\nsamples = 4\nvalue = 2.0", fillcolor="#f5cdb0"] ;
937 -> 939 ;
940 [label="X[4] <= 1947.0\nmse = 0.222\nsamples = 3\nvalue = 4.333", fillcolor="#e89253"] ;
930 -> 940 ;
941 [label="mse = 0.0\nsamples = 1\nvalue = 5.0", fillcolor="#e58139"] ;
940 -> 941 ;
942 [label="mse = 0.0\nsamples = 2\nvalue = 4.0", fillcolor="#ea9a61"] ;
940 -> 942 ;
943 [label="X[4] <= 2729.0\nmse = 0.24\nsamples = 50\nvalue = 1.8", fillcolor="#f6d2b8"] ;
929 -> 943 ;
944 [label="X[6] <= 34.115\nmse = 0.209\nsamples = 37\nvalue = 1.703", fillcolor="#f6d4bc"] ;
943 -> 944 ;
945 [label="X[7] <= -118.27\nmse = 0.241\nsamples = 27\nvalue = 1.593", fillcolor="#f7d7c0"] ;
944 -> 945 ;
946 [label="X[0] <= 1.98\nmse = 0.222\nsamples = 24\nvalue = 1.667", fillcolor="#f6d5bd"] ;
945 -> 946 ;
947 [label="X[4] <= 2372.5\nmse = 0.222\nsamples = 6\nvalue = 1.333", fillcolor="#f8ddca"] ;
946 -> 947 ;
948 [label="mse = 0.0\nsamples = 4\nvalue = 1.0", fillcolor="#fae6d7"] ;
947 -> 948 ;
949 [label="mse = 0.0\nsamples = 2\nvalue = 2.0", fillcolor="#f5cdb0"] ;
947 -> 949 ;
950 [label="X[7] <= -118.295\nmse = 0.173\nsamples = 18\nvalue = 1.778", fillcolor="#f6d2b9"] ;
946 -> 950 ;
951 [label="mse = 0.0\nsamples = 9\nvalue = 2.0", fillcolor="#f5cdb0"] ;
950 -> 951 ;
952 [label="X[1] <= 41.0\nmse = 0.247\nsamples = 9\nvalue = 1.556", fillcolor="#f7d8c1"] ;
950 -> 952 ;
953 [label="X[6] <= 34.075\nmse = 0.222\nsamples = 6\nvalue = 1.333", fillcolor="#f8ddca"] ;
952 -> 953 ;
954 [label="mse = 0.0\nsamples = 2\nvalue = 2.0", fillcolor="#f5cdb0"] ;
953 -> 954 ;
955 [label="mse = 0.0\nsamples = 4\nvalue = 1.0", fillcolor="#fae6d7"] ;
953 -> 955 ;
956 [label="mse = 0.0\nsamples = 3\nvalue = 2.0", fillcolor="#f5cdb0"] ;
952 -> 956 ;
957 [label="mse = 0.0\nsamples = 3\nvalue = 1.0", fillcolor="#fae6d7"] ;
945 -> 957 ;
958 [label="mse = 0.0\nsamples = 10\nvalue = 2.0", fillcolor="#f5cdb0"] ;
944 -> 958 ;
959 [label="X[4] <= 2777.0\nmse = 0.225\nsamples = 13\nvalue = 2.077", fillcolor="#f4cbad"] ;
943 -> 959 ;
960 [label="mse = 0.0\nsamples = 1\nvalue = 3.0", fillcolor="#efb388"] ;
959 -> 960 ;
961 [label="X[1] <= 39.5\nmse = 0.167\nsamples = 12\nvalue = 2.0", fillcolor="#f5cdb0"] ;
959 -> 961 ;
962 [label="X[6] <= 34.075\nmse = 0.09\nsamples = 10\nvalue = 1.9", fillcolor="#f5cfb4"] ;
961 -> 962 ;
963 [label="mse = 0.0\nsamples = 1\nvalue = 1.0", fillcolor="#fae6d7"] ;
962 -> 963 ;
964 [label="mse = 0.0\nsamples = 9\nvalue = 2.0", fillcolor="#f5cdb0"] ;
962 -> 964 ;
965 [label="X[5] <= 3.05\nmse = 0.25\nsamples = 2\nvalue = 2.5", fillcolor="#f2c09c"] ;
961 -> 965 ;
966 [label="mse = 0.0\nsamples = 1\nvalue = 3.0", fillcolor="#efb388"] ;
965 -> 966 ;
967 [label="mse = 0.0\nsamples = 1\nvalue = 2.0", fillcolor="#f5cdb0"] ;
965 -> 967 ;
968 [label="X[1] <= 44.5\nmse = 0.052\nsamples = 18\nvalue = 0.944", fillcolor="#fae7da"] ;
888 -> 968 ;
969 [label="mse = 0.0\nsamples = 17\nvalue = 1.0", fillcolor="#fae6d7"] ;
968 -> 969 ;
970 [label="mse = 0.0\nsamples = 1\nvalue = 0.0", fillcolor="#ffffff"] ;
968 -> 970 ;
971 [label="mse = 0.0\nsamples = 1\nvalue = 5.0", fillcolor="#e58139"] ;
887 -> 971 ;
972 [label="X[6] <= 37.765\nmse = 0.483\nsamples = 466\nvalue = 1.167", fillcolor="#f9e2d1"] ;
886 -> 972 ;
973 [label="X[7] <= -117.875\nmse = 0.453\nsamples = 417\nvalue = 1.235", fillcolor="#f9e0ce"] ;
972 -> 973 ;
974 [label="X[6] <= 34.535\nmse = 0.402\nsamples = 325\nvalue = 1.357", fillcolor="#f8ddc9"] ;
973 -> 974 ;
975 [label="X[6] <= 33.985\nmse = 0.338\nsamples = 260\nvalue = 1.435", fillcolor="#f8dbc6"] ;
974 -> 975 ;
976 [label="X[6] <= 33.75\nmse = 0.229\nsamples = 90\nvalue = 1.244", fillcolor="#f9e0ce"] ;
975 -> 976 ;
977 [label="X[6] <= 33.645\nmse = 0.321\nsamples = 9\nvalue = 1.889", fillcolor="#f5cfb4"] ;
976 -> 977 ;
978 [label="mse = 0.0\nsamples = 2\nvalue = 1.0", fillcolor="#fae6d7"] ;
977 -> 978 ;
979 [label="X[3] <= 1.161\nmse = 0.122\nsamples = 7\nvalue = 2.143", fillcolor="#f4c9aa"] ;
977 -> 979 ;
980 [label="mse = 0.0\nsamples = 6\nvalue = 2.0", fillcolor="#f5cdb0"] ;
979 -> 980 ;
981 [label="mse = 0.0\nsamples = 1\nvalue = 3.0", fillcolor="#efb388"] ;
979 -> 981 ;
982 [label="X[2] <= 4.192\nmse = 0.168\nsamples = 81\nvalue = 1.173", fillcolor="#f9e1d1"] ;
976 -> 982 ;
983 [label="X[6] <= 33.925\nmse = 0.154\nsamples = 79\nvalue = 1.152", fillcolor="#f9e2d1"] ;
982 -> 983 ;
984 [label="X[7] <= -118.295\nmse = 0.19\nsamples = 51\nvalue = 1.255", fillcolor="#f8dfcd"] ;
983 -> 984 ;
985 [label="X[4] <= 3922.5\nmse = 0.173\nsamples = 9\nvalue = 1.778", fillcolor="#f6d2b9"] ;
984 -> 985 ;
986 [label="X[7] <= -118.305\nmse = 0.109\nsamples = 8\nvalue = 1.875", fillcolor="#f5d0b5"] ;
985 -> 986 ;
987 [label="mse = 0.0\nsamples = 6\nvalue = 2.0", fillcolor="#f5cdb0"] ;
986 -> 987 ;
988 [label="X[2] <= 4.034\nmse = 0.25\nsamples = 2\nvalue = 1.5", fillcolor="#f7d9c4"] ;
986 -> 988 ;
989 [label="mse = 0.0\nsamples = 1\nvalue = 1.0", fillcolor="#fae6d7"] ;
988 -> 989 ;
990 [label="mse = 0.0\nsamples = 1\nvalue = 2.0", fillcolor="#f5cdb0"] ;
988 -> 990 ;
991 [label="mse = 0.0\nsamples = 1\nvalue = 1.0", fillcolor="#fae6d7"] ;
985 -> 991 ;
992 [label="X[3] <= 1.051\nmse = 0.122\nsamples = 42\nvalue = 1.143", fillcolor="#f9e2d2"] ;
984 -> 992 ;
993 [label="X[7] <= -117.975\nmse = 0.198\nsamples = 22\nvalue = 1.273", fillcolor="#f8dfcd"] ;
992 -> 993 ;
994 [label="X[5] <= 2.955\nmse = 0.109\nsamples = 16\nvalue = 1.125", fillcolor="#f9e3d2"] ;
993 -> 994 ;
995 [label="mse = 0.0\nsamples = 10\nvalue = 1.0", fillcolor="#fae6d7"] ;
994 -> 995 ;
996 [label="X[3] <= 1.033\nmse = 0.222\nsamples = 6\nvalue = 1.333", fillcolor="#f8ddca"] ;
994 -> 996 ;
997 [label="mse = 0.0\nsamples = 2\nvalue = 2.0", fillcolor="#f5cdb0"] ;
996 -> 997 ;
998 [label="mse = 0.0\nsamples = 4\nvalue = 1.0", fillcolor="#fae6d7"] ;
996 -> 998 ;
999 [label="X[5] <= 2.894\nmse = 0.222\nsamples = 6\nvalue = 1.667", fillcolor="#f6d5bd"] ;
993 -> 999 ;
1000 [label="mse = 0.0\nsamples = 4\nvalue = 2.0", fillcolor="#f5cdb0"] ;
999 -> 1000 ;
1001 [label="mse = 0.0\nsamples = 2\nvalue = 1.0", fillcolor="#fae6d7"] ;
999 -> 1001 ;
1002 [label="mse = 0.0\nsamples = 20\nvalue = 1.0", fillcolor="#fae6d7"] ;
992 -> 1002 ;
1003 [label="X[4] <= 1100.5\nmse = 0.034\nsamples = 28\nvalue = 0.964", fillcolor="#fae7d9"] ;
983 -> 1003 ;
1004 [label="X[2] <= 3.809\nmse = 0.25\nsamples = 2\nvalue = 0.5", fillcolor="#fcf2eb"] ;
1003 -> 1004 ;
1005 [label="mse = 0.0\nsamples = 1\nvalue = 1.0", fillcolor="#fae6d7"] ;
1004 -> 1005 ;
1006 [label="mse = 0.0\nsamples = 1\nvalue = 0.0", fillcolor="#ffffff"] ;
1004 -> 1006 ;
1007 [label="mse = 0.0\nsamples = 26\nvalue = 1.0", fillcolor="#fae6d7"] ;
1003 -> 1007 ;
1008 [label="mse = 0.0\nsamples = 2\nvalue = 2.0", fillcolor="#f5cdb0"] ;
982 -> 1008 ;
1009 [label="X[7] <= -118.465\nmse = 0.366\nsamples = 170\nvalue = 1.535", fillcolor="#f7d8c2"] ;
975 -> 1009 ;
1010 [label="X[6] <= 34.11\nmse = 0.433\nsamples = 31\nvalue = 1.774", fillcolor="#f6d2b9"] ;
1009 -> 1010 ;
1011 [label="X[3] <= 1.099\nmse = 0.16\nsamples = 5\nvalue = 2.8", fillcolor="#f0b890"] ;
1010 -> 1011 ;
1012 [label="mse = 0.0\nsamples = 4\nvalue = 3.0", fillcolor="#efb388"] ;
1011 -> 1012 ;
1013 [label="mse = 0.0\nsamples = 1\nvalue = 2.0", fillcolor="#f5cdb0"] ;
1011 -> 1013 ;
1014 [label="X[7] <= -119.31\nmse = 0.244\nsamples = 26\nvalue = 1.577", fillcolor="#f7d7c1"] ;
1010 -> 1014 ;
1015 [label="mse = 0.0\nsamples = 9\nvalue = 2.0", fillcolor="#f5cdb0"] ;
1014 -> 1015 ;
1016 [label="X[1] <= 25.0\nmse = 0.228\nsamples = 17\nvalue = 1.353", fillcolor="#f8ddc9"] ;
1014 -> 1016 ;
1017 [label="X[6] <= 34.205\nmse = 0.204\nsamples = 7\nvalue = 1.714", fillcolor="#f6d4bb"] ;
1016 -> 1017 ;
1018 [label="X[5] <= 2.779\nmse = 0.222\nsamples = 3\nvalue = 1.333", fillcolor="#f8ddca"] ;
1017 -> 1018 ;
1019 [label="mse = 0.0\nsamples = 1\nvalue = 2.0", fillcolor="#f5cdb0"] ;
1018 -> 1019 ;
1020 [label="mse = 0.0\nsamples = 2\nvalue = 1.0", fillcolor="#fae6d7"] ;
1018 -> 1020 ;
1021 [label="mse = 0.0\nsamples = 4\nvalue = 2.0", fillcolor="#f5cdb0"] ;
1017 -> 1021 ;
1022 [label="X[5] <= 3.36\nmse = 0.09\nsamples = 10\nvalue = 1.1", fillcolor="#f9e3d3"] ;
1016 -> 1022 ;
1023 [label="mse = 0.0\nsamples = 9\nvalue = 1.0", fillcolor="#fae6d7"] ;
1022 -> 1023 ;
1024 [label="mse = 0.0\nsamples = 1\nvalue = 2.0", fillcolor="#f5cdb0"] ;
1022 -> 1024 ;
1025 [label="X[6] <= 34.205\nmse = 0.336\nsamples = 139\nvalue = 1.482", fillcolor="#f7dac4"] ;
1009 -> 1025 ;
1026 [label="X[5] <= 3.008\nmse = 0.343\nsamples = 128\nvalue = 1.523", fillcolor="#f7d9c3"] ;
1025 -> 1026 ;
1027 [label="X[7] <= -118.315\nmse = 0.369\nsamples = 71\nvalue = 1.648", fillcolor="#f6d5be"] ;
1026 -> 1027 ;
1028 [label="X[7] <= -118.445\nmse = 0.381\nsamples = 28\nvalue = 1.393", fillcolor="#f8dcc8"] ;
1027 -> 1028 ;
1029 [label="X[5] <= 2.964\nmse = 0.222\nsamples = 3\nvalue = 2.333", fillcolor="#f3c4a3"] ;
1028 -> 1029 ;
1030 [label="mse = 0.0\nsamples = 2\nvalue = 2.0", fillcolor="#f5cdb0"] ;
1029 -> 1030 ;
1031 [label="mse = 0.0\nsamples = 1\nvalue = 3.0", fillcolor="#efb388"] ;
1029 -> 1031 ;
1032 [label="X[2] <= 4.175\nmse = 0.282\nsamples = 25\nvalue = 1.28", fillcolor="#f8dfcc"] ;
1028 -> 1032 ;
1033 [label="X[0] <= 2.071\nmse = 0.257\nsamples = 23\nvalue = 1.217", fillcolor="#f9e0cf"] ;
1032 -> 1033 ;
1034 [label="X[0] <= 1.989\nmse = 0.64\nsamples = 5\nvalue = 1.6", fillcolor="#f7d7c0"] ;
1033 -> 1034 ;
1035 [label="mse = 0.0\nsamples = 3\nvalue = 1.0", fillcolor="#fae6d7"] ;
1034 -> 1035 ;
1036 [label="X[1] <= 38.0\nmse = 0.25\nsamples = 2\nvalue = 2.5", fillcolor="#f2c09c"] ;
1034 -> 1036 ;
1037 [label="mse = 0.0\nsamples = 1\nvalue = 3.0", fillcolor="#efb388"] ;
1036 -> 1037 ;
1038 [label="mse = 0.0\nsamples = 1\nvalue = 2.0", fillcolor="#f5cdb0"] ;
1036 -> 1038 ;
1039 [label="X[7] <= -118.405\nmse = 0.099\nsamples = 18\nvalue = 1.111", fillcolor="#f9e3d3"] ;
1033 -> 1039 ;
1040 [label="X[3] <= 1.131\nmse = 0.24\nsamples = 5\nvalue = 1.4", fillcolor="#f8dcc8"] ;
1039 -> 1040 ;
1041 [label="X[4] <= 1170.5\nmse = 0.222\nsamples = 3\nvalue = 1.667", fillcolor="#f6d5bd"] ;
1040 -> 1041 ;
1042 [label="mse = 0.0\nsamples = 1\nvalue = 1.0", fillcolor="#fae6d7"] ;
1041 -> 1042 ;
1043 [label="mse = 0.0\nsamples = 2\nvalue = 2.0", fillcolor="#f5cdb0"] ;
1041 -> 1043 ;
